{"learner":{"attributes":{},"feature_names":["snr_score","log_snr_score","transit_count_score","depth_consistency_score","duration_consistency_score","duration_plausibility_score","transit_shape_score","data_gap_overlap_score","odd_even_mismatch_score","secondary_eclipse_score","v_shape_score","large_depth_score","companion_radius_too_large_score","duration_implausibility_score","centroid_offset_score","contamination_score","nearby_bright_source_score","aperture_edge_score","dilution_sensitivity_score","stellar_variability_score","variability_periodogram_score","harmonic_score","flare_score","quasi_periodic_score","non_box_shape_score","systematics_overlap_score","quality_flag_score","sector_boundary_score","background_excursion_score","single_event_score","nearby_targets_common_signal_score","known_object_score","target_id_match_score","period_match_score","epoch_match_score"],"feature_types":[],"gradient_booster":{"model":{"cats":{"enc":[],"feature_segments":[],"sorted_idx":[]},"gbtree_model_param":{"num_parallel_tree":"1","num_trees":"100"},"iteration_indptr":[0,1,2,3,4,5,6,7,8,9,10,11,12,13,14,15,16,17,18,19,20,21,22,23,24,25,26,27,28,29,30,31,32,33,34,35,36,37,38,39,40,41,42,43,44,45,46,47,48,49,50,51,52,53,54,55,56,57,58,59,60,61,62,63,64,65,66,67,68,69,70,71,72,73,74,75,76,77,78,79,80,81,82,83,84,85,86,87,88,89,90,91,92,93,94,95,96,97,98,99,100],"tree_info":[0,0,0,0,0,0,0,0,0,0,0,0,0,0,0,0,0,0,0,0,0,0,0,0,0,0,0,0,0,0,0,0,0,0,0,0,0,0,0,0,0,0,0,0,0,0,0,0,0,0,0,0,0,0,0,0,0,0,0,0,0,0,0,0,0,0,0,0,0,0,0,0,0,0,0,0,0,0,0,0,0,0,0,0,0,0,0,0,0,0,0,0,0,0,0,0,0,0,0,0],"trees":[{"base_weights":[-2.530277E-3,8.1989694E-1,-1.4148996E0,1.9815774E0,-1.4914297E0,-1.4747033E0,7.638501E-1,-8.4267616E-1,2.2502341E0,-1.5013069E0,5.5195462E-2,-8.6138725E-1,-1.513269E0,1.8142024E0,-3.877329E-3,-1.5833864E-2,-1.4721222E-1,-1.0583725E-1,2.4449654E-1,-6.857006E-2,-1.5139057E-1,-1.2053857E-1,6.585346E-2,-1.3264006E-1,-1.5392144E-1,5.5195462E-2,1.9980673E-1,1.1645254E-1,-8.166295E-2],"categories":[],"categories_nodes":[],"categories_segments":[],"categories_sizes":[],"default_left":[0,0,0,0,0,0,0,0,0,0,0,0,0,0,0,0,0,0,0,0,0,0,0,0,0,0,0,0,0],"id":0,"left_children":[1,3,5,7,9,11,13,15,17,19,-1,21,23,25,27,-1,-1,-1,-1,-1,-1,-1,-1,-1,-1,-1,-1,-1,-1],"loss_changes":[1.6231727E3,2.3742104E3,6.813281E1,4.4817334E2,6.802124E0,1.0543213E1,1.1616772E1,2.2087376E1,3.4879883E2,1.991333E0,0E0,1.7500088E1,2.3657227E-1,3.0862045E-1,9.797238E0,0E0,0E0,0E0,0E0,0E0,0E0,0E0,0E0,0E0,0E0,0E0,0E0,0E0,0E0],"parents":[2147483647,0,0,1,1,2,2,3,3,4,4,5,5,6,6,7,7,8,8,9,9,11,11,12,12,13,13,14,14],"right_children":[2,4,6,8,10,12,14,16,18,20,-1,22,24,26,28,-1,-1,-1,-1,-1,-1,-1,-1,-1,-1,-1,-1,-1,-1],"split_conditions":[2.74E-1,4.56E-1,1.5E-1,5.646363E-1,1.5E-1,3.32E-1,5.38E-1,9.653217E-1,4.6371502E-1,4.9566665E-1,5.5195462E-2,1E-1,4.6E-1,6.318124E-1,3.9666668E-2,-1.5833864E-2,-1.4721222E-1,-1.0583725E-1,2.4449654E-1,-6.857006E-2,-1.5139057E-1,-1.2053857E-1,6.585346E-2,-1.3264006E-1,-1.5392144E-1,5.5195462E-2,1.9980673E-1,1.1645254E-1,-8.166295E-2],"split_indices":[14,12,2,0,2,14,14,5,5,12,0,2,14,0,12,0,0,0,0,0,0,0,0,0,0,0,0,0,0],"split_type":[0,0,0,0,0,0,0,0,0,0,0,0,0,0,0,0,0,0,0,0,0,0,0,0,0,0,0,0,0],"sum_hessian":[1.3953959E3,8.821415E2,5.132544E2,5.871704E2,2.9497113E2,4.998571E2,1.3397279E1,5.0817265E1,5.3635315E2,2.938162E2,1.1549379E0,3.0952333E1,4.6890475E2,5.0817266E0,8.315553E0,2.4946657E1,2.5870607E1,2.9566408E1,5.067867E2,5.312714E0,2.8850348E2,2.5408632E1,5.5437016E0,6.352158E1,4.0538318E2,1.1549379E0,3.9267886E0,3.233826E0,5.0817266E0],"tree_param":{"num_deleted":"0","num_feature":"35","num_nodes":"29","size_leaf_vector":"1"}},{"base_weights":[-5.342158E-3,-5.693321E-1,1.6728736E0,-6.7357947E-3,-1.4340703E0,1.9356966E0,-1.1558293E0,-1.1300734E0,5.2434176E-1,-9.806529E-1,-1.4562383E-1,8.723554E-2,2.123134E0,-4.13816E-3,-1.233909E0,-1.3617997E-1,-3.9323356E-2,1.2567326E-1,-9.393064E-2,-1.2815745E-1,-5.840355E-2,-1.18884884E-1,4.9310487E-2,2.1977499E-1,-7.3182516E-2,-1.3121061E-1,-5.0952446E-2],"categories":[],"categories_nodes":[],"categories_segments":[],"categories_sizes":[],"default_left":[0,0,0,0,0,0,0,0,0,0,0,0,0,0,0,0,0,0,0,0,0,0,0,0,0,0,0],"id":1,"left_children":[1,3,5,7,9,11,13,15,17,19,-1,21,23,-1,25,-1,-1,-1,-1,-1,-1,-1,-1,-1,-1,-1,-1],"loss_changes":[1.322521E3,5.087754E2,2.6353235E2,3.7918158E2,2.715271E0,1.1136377E2,2.6033936E0,3.4301178E1,4.638097E2,1.9101524E0,0E0,1.6478344E1,6.3870117E1,0E0,9.443245E-1,0E0,0E0,0E0,0E0,0E0,0E0,0E0,0E0,0E0,0E0,0E0,0E0],"parents":[2147483647,0,0,1,1,2,2,3,3,4,4,5,5,6,6,7,7,8,8,9,9,11,11,12,12,14,14],"right_children":[2,4,6,8,10,12,14,16,18,20,-1,22,24,-1,26,-1,-1,-1,-1,-1,-1,-1,-1,-1,-1,-1,-1],"split_conditions":[1E-1,4.56E-1,4.14E-1,6.681878E-1,5.87E-1,6.08259E-1,5.1566666E-1,5.7932425E-1,2.9121134E-1,1E0,-1.4562383E-1,1.2098887E-2,5.0075525E-1,-4.13816E-3,1.5E-1,-1.3617997E-1,-3.9323356E-2,1.2567326E-1,-9.393064E-2,-1.2815745E-1,-5.840355E-2,-1.18884884E-1,4.9310487E-2,2.1977499E-1,-7.3182516E-2,-1.3121061E-1,-5.0952446E-2],"split_indices":[2,12,12,0,12,0,12,0,13,0,0,13,13,0,2,0,0,0,0,0,0,0,0,0,0,0,0],"split_type":[0,0,0,0,0,0,0,0,0,0,0,0,0,0,0,0,0,0,0,0,0,0,0,0,0,0,0],"sum_hessian":[1.3952734E3,1.0448099E3,3.5046353E2,6.3359955E2,4.1121036E2,3.209581E2,2.9505457E1,2.0302733E2,4.305722E2,2.1275843E1,3.899345E2,2.9684294E1,2.912738E2,2.0320194E0,2.7473438E1,1.5380846E2,4.921886E1,2.8706827E2,1.4350394E2,1.082866E1,1.0447183E1,6.697548E0,2.2986746E1,2.8407944E2,7.1943555E0,2.4064358E1,3.40908E0],"tree_param":{"num_deleted":"0","num_feature":"35","num_nodes":"27","size_leaf_vector":"1"}},{"base_weights":[-2.5782064E-2,6.936269E-1,-1.3069303E0,1.4265109E0,-1.1127813E0,-1.3601177E0,4.4411674E-1,-8.4685326E-1,1.638215E0,-1.1846018E-1,-1.3819969E0,-8.083668E-1,-1.3956789E0,9.2796266E-1,-8.4005004E-1,-1.1462547E-1,4.9051743E-2,-1.0370093E-1,1.8200207E-1,-3.3415128E-2,1.2396127E-1,-9.858146E-2,-1.4065081E-1,-1.136769E-1,7.642839E-2,-1.2169158E-1,-1.4192647E-1,-8.83976E-2,1.2547344E-1,-1.1126832E-1,-2.1878318E-3],"categories":[],"categories_nodes":[],"categories_segments":[],"categories_sizes":[],"default_left":[0,0,0,0,0,0,0,0,0,0,0,0,0,0,1,0,0,0,0,0,0,0,0,0,0,0,0,0,0,0,0],"id":2,"left_children":[1,3,5,7,9,11,13,15,17,19,21,23,25,27,29,-1,-1,-1,-1,-1,-1,-1,-1,-1,-1,-1,-1,-1,-1,-1,-1],"loss_changes":[1.2636208E3,1.1639797E3,4.6520325E1,3.0220776E2,6.782123E1,8.2647705E0,1.0278257E1,2.2147121E1,2.8015747E2,1.6585485E1,5.533142E-1,1.706659E1,1.6320801E-1,7.9649496E0,1.0259469E0,0E0,0E0,0E0,0E0,0E0,0E0,0E0,0E0,0E0,0E0,0E0,0E0,0E0,0E0,0E0,0E0],"parents":[2147483647,0,0,1,1,2,2,3,3,4,4,5,5,6,6,7,7,8,8,9,9,10,10,11,11,12,12,13,13,14,14],"right_children":[2,4,6,8,10,12,14,16,18,20,22,24,26,28,30,-1,-1,-1,-1,-1,-1,-1,-1,-1,-1,-1,-1,-1,-1,-1,-1],"split_conditions":[2.74E-1,9.1918E-2,1.5E-1,5.646363E-1,3.88018E-1,3.32E-1,9.54994E-1,1E-1,4.6371502E-1,1E-1,5.4884E-1,1E-1,4.6E-1,4.8198912E-1,6.8135375E-1,-1.1462547E-1,4.9051743E-2,-1.0370093E-1,1.8200207E-1,-3.3415128E-2,1.2396127E-1,-9.858146E-2,-1.4065081E-1,-1.136769E-1,7.642839E-2,-1.2169158E-1,-1.4192647E-1,-8.83976E-2,1.2547344E-1,-1.1126832E-1,-2.1878318E-3],"split_indices":[14,11,2,0,11,14,5,2,5,2,11,2,14,5,0,0,0,0,0,0,0,0,0,0,0,0,0,0,0,0,0],"split_type":[0,0,0,0,0,0,0,0,0,0,0,0,0,0,0,0,0,0,0,0,0,0,0,0,0,0,0,0,0,0,0],"sum_hessian":[1.3690293E3,8.7701416E2,4.9201514E2,6.240422E2,2.5297198E2,4.777276E2,1.4287508E1,5.290683E1,5.711354E2,5.4206318E1,1.9876567E2,3.0362965E1,4.4736465E2,1.0578966E1,3.7085414E0,4.334578E1,9.561051E0,3.6044582E1,5.3509076E2,4.742773E1,6.7785883E0,1.3982423E1,1.8478325E2,2.5347122E1,5.015842E0,5.8275124E1,3.8908954E2,1.3558182E0,9.223148E0,2.511643E0,1.1968985E0],"tree_param":{"num_deleted":"0","num_feature":"35","num_nodes":"31","size_leaf_vector":"1"}},{"base_weights":[-4.2961184E-3,5.560323E-1,-1.3325384E0,7.0822085E-3,1.600495E0,-1.3409973E0,-1.5337026E-1,-9.6536225E-1,4.4880223E-1,-3.1668982E-1,1.6993221E0,-8.910045E-1,-1.3637494E-1,5.459527E-2,-8.688174E-2,-1.2619019E-1,-5.466338E-2,-1.12921946E-1,9.414834E-2,3.1726677E-2,-7.682686E-2,-4.043696E-2,1.7650782E-1,-1.2528974E-1,-5.3539027E-2],"categories":[],"categories_nodes":[],"categories_segments":[],"categories_sizes":[],"default_left":[0,0,0,0,0,0,0,0,0,0,0,0,0,0,0,0,0,0,0,0,0,0,0,0,0],"id":3,"left_children":[1,3,5,7,9,11,13,15,17,19,21,23,-1,-1,-1,-1,-1,-1,-1,-1,-1,-1,-1,-1,-1],"loss_changes":[9.934622E2,5.382632E2,3.744629E0,2.651996E2,6.181781E1,2.8095093E0,2.4506092E0,2.325595E1,3.3112366E2,5.0239773E0,4.3282104E1,2.1351452E0,0E0,0E0,0E0,0E0,0E0,0E0,0E0,0E0,0E0,0E0,0E0,0E0,0E0],"parents":[2147483647,0,0,1,1,2,2,3,3,4,4,5,5,6,6,7,7,8,8,9,9,10,10,11,11],"right_children":[2,4,6,8,10,12,14,16,18,20,22,24,-1,-1,-1,-1,-1,-1,-1,-1,-1,-1,-1,-1,-1],"split_conditions":[4.56E-1,1E-1,1.5E-1,7.137398E-1,5.099987E-1,5.87E-1,9.1918E-2,4.736074E-1,5.7932425E-1,4.3333333E-2,5.367972E-1,9.998122E-1,-1.3637494E-1,5.459527E-2,-8.688174E-2,-1.2619019E-1,-5.466338E-2,-1.12921946E-1,9.414834E-2,3.1726677E-2,-7.682686E-2,-4.043696E-2,1.7650782E-1,-1.2528974E-1,-5.3539027E-2],"split_indices":[12,2,2,5,0,12,11,5,0,12,5,0,0,0,0,0,0,0,0,0,0,0,0,0,0],"split_type":[0,0,0,0,0,0,0,0,0,0,0,0,0,0,0,0,0,0,0,0,0,0,0,0,0],"sum_hessian":[1.3328512E3,9.3781055E2,3.9504068E2,6.1538336E2,3.2242722E2,3.920907E2,2.9499562E0,1.918472E2,4.2353613E2,1.569767E1,3.0672955E2,2.0803108E1,3.712876E2,1.6115919E0,1.3383642E0,1.1113135E2,8.071586E1,1.0046432E2,3.230718E2,6.6539035E0,9.043767E0,9.140907E0,2.9758865E2,9.0599785E0,1.1743131E1],"tree_param":{"num_deleted":"0","num_feature":"35","num_nodes":"25","size_leaf_vector":"1"}},{"base_weights":[5.215173E-3,6.6500473E-1,-1.1401329E0,1.2344851E0,-1.18283E0,-1.2238007E0,6.8180245E-1,1.360714E0,-1.0322039E0,-6.5416574E-1,-1.295767E-1,-6.836409E-1,-1.3188019E0,1.4640913E0,-6.835344E-2,-6.768756E-2,1.4758973E-1,-4.1556288E-2,-1.22915484E-1,3.9873578E-2,-7.199863E-2,-9.187286E-2,4.430931E-2,-1.3433321E-1,-1.1316755E-1,4.2859362E-3,1.6366377E-1,-1.1462686E-1,3.9824445E-2],"categories":[],"categories_nodes":[],"categories_segments":[],"categories_sizes":[],"default_left":[0,0,0,0,0,0,0,0,0,0,0,0,1,0,0,0,0,0,0,0,0,0,0,0,0,0,0,0,0],"id":4,"left_children":[1,3,5,7,9,11,13,15,17,19,-1,21,23,25,27,-1,-1,-1,-1,-1,-1,-1,-1,-1,-1,-1,-1,-1,-1],"loss_changes":[9.83438E2,8.7036163E2,7.3343445E1,1.8214087E2,1.0797058E1,2.2454163E1,1.27328615E1,1.4153186E2,3.6051102E0,2.8062572E0,0E0,1.8988861E1,2.515869E-1,2.5249443E0,6.464023E0,0E0,0E0,0E0,0E0,0E0,0E0,0E0,0E0,0E0,0E0,0E0,0E0,0E0,0E0],"parents":[2147483647,0,0,1,1,2,2,3,3,4,4,5,5,6,6,7,7,8,8,9,9,11,11,12,12,13,13,14,14],"right_children":[2,4,6,8,10,12,14,16,18,20,-1,22,24,26,28,-1,-1,-1,-1,-1,-1,-1,-1,-1,-1,-1,-1,-1,-1],"split_conditions":[2.16E-1,2.22138E-1,1.5E-1,5.5817693E-1,5.4884E-1,3.6E-1,4.36E-1,5.1059467E-1,7.5678676E-1,6.8E-3,-1.295767E-1,1E-1,9.888618E-1,5.395906E-1,2.043324E-2,-6.768756E-2,1.4758973E-1,-4.1556288E-2,-1.22915484E-1,3.9873578E-2,-7.199863E-2,-9.187286E-2,4.430931E-2,-1.3433321E-1,-1.1316755E-1,4.2859362E-3,1.6366377E-1,-1.1462686E-1,3.9824445E-2],"split_indices":[14,11,2,13,11,14,14,1,13,14,0,2,1,1,13,0,0,0,0,0,0,0,0,0,0,0,0,0,0],"split_type":[0,0,0,0,0,0,0,0,0,0,0,0,0,0,0,0,0,0,0,0,0,0,0,0,0,0,0,0,0],"sum_hessian":[1.2993765E3,8.24712E2,4.746645E2,6.306769E2,1.9403511E2,4.5413763E2,2.052685E1,5.977866E2,3.289022E1,3.5350372E1,1.5868472E2,6.9151344E1,3.849863E2,9.582336E0,1.0944513E1,3.1723446E1,5.6606323E2,8.71478E0,2.4175442E1,1.7822716E0,3.3568104E1,5.736667E1,1.1784675E1,3.349051E2,5.008119E1,1.1725612E0,8.409775E0,2.8662858E0,8.078227E0],"tree_param":{"num_deleted":"0","num_feature":"35","num_nodes":"29","size_leaf_vector":"1"}},{"base_weights":[-5.645486E-3,6.443134E-1,-1.070481E0,1.3602756E0,-1.22127E0,-1.1541046E0,6.667071E-1,-9.9295974E-1,1.4479879E0,-5.922613E-1,-1.2545943E0,-5.964989E-1,-1.2555736E0,1.2348922E0,-4.0674585E-1,-1.1843373E-1,-3.377122E-2,1.5133321E-1,-8.0292255E-2,3.9873928E-2,-9.554321E-2,-8.555442E-2,-1.2795356E-1,-8.846994E-2,6.302602E-2,-1.0527041E-1,-1.2851302E-1,1.4126366E-1,-2.837873E-2,7.5366646E-2,-8.717121E-2],"categories":[],"categories_nodes":[],"categories_segments":[],"categories_sizes":[],"default_left":[0,0,0,0,0,0,0,0,0,0,0,0,0,0,0,0,0,0,0,0,0,0,0,0,0,0,0,0,0,0,0],"id":5,"left_children":[1,3,5,7,9,11,13,15,17,19,21,23,25,27,29,-1,-1,-1,-1,-1,-1,-1,-1,-1,-1,-1,-1,-1,-1,-1,-1],"loss_changes":[8.708971E2,1.0453638E3,7.0055664E1,1.1809094E2,3.8105774E0,2.5017883E1,1.424891E1,2.2210732E0,8.14137E1,4.996464E0,9.4973755E-1,2.6019892E1,9.5202637E-1,4.446005E0,5.271755E0,0E0,0E0,0E0,0E0,0E0,0E0,0E0,0E0,0E0,0E0,0E0,0E0,0E0,0E0,0E0,0E0],"parents":[2147483647,0,0,1,1,2,2,3,3,4,4,5,5,6,6,7,7,8,8,9,9,10,10,11,11,12,12,13,13,14,14],"right_children":[2,4,6,8,10,12,14,16,18,20,22,24,26,28,30,-1,-1,-1,-1,-1,-1,-1,-1,-1,-1,-1,-1,-1,-1,-1,-1],"split_conditions":[2E-1,4.7866666E-1,1.5E-1,3.991387E-1,6.0966665E-1,3.2E-1,1E0,2.1441019E-1,9.908025E-1,7.4994844E-1,2.0124E-2,1E-1,4.54E-1,9.702429E-1,3.9666668E-2,-1.1843373E-1,-3.377122E-2,1.5133321E-1,-8.0292255E-2,3.9873928E-2,-9.554321E-2,-8.555442E-2,-1.2795356E-1,-8.846994E-2,6.302602E-2,-1.0527041E-1,-1.2851302E-1,1.4126366E-1,-2.837873E-2,7.5366646E-2,-8.717121E-2],"split_indices":[14,12,2,5,12,14,14,5,5,5,11,2,14,5,12,0,0,0,0,0,0,0,0,0,0,0,0,0,0,0,0],"split_type":[0,0,0,0,0,0,0,0,0,0,0,0,0,0,0,0,0,0,0,0,0,0,0,0,0,0,0,0,0,0,0],"sum_hessian":[1.256345E3,7.8039746E2,4.7594745E2,5.641588E2,2.162386E2,4.5440906E2,2.15384E1,1.9901464E1,5.442574E2,1.1824297E1,2.044143E2,7.101845E1,3.8339062E2,1.3985434E1,7.5529675E0,1.4777847E1,5.1236176E0,5.292217E2,1.5035678E1,3.1448538E0,8.679443E0,1.4101277E1,1.9031303E2,5.7733944E1,1.3284505E1,5.3410168E1,3.2998044E2,1.2582607E1,1.4028265E0,1.9830301E0,5.569937E0],"tree_param":{"num_deleted":"0","num_feature":"35","num_nodes":"31","size_leaf_vector":"1"}},{"base_weights":[-5.5030794E-3,4.5417652E-1,-1.156142E0,6.076892E-4,1.2773021E0,-6.220173E-1,-1.2099786E0,-7.613332E-1,3.946964E-1,-9.1495655E-2,1.3234824E0,-4.722954E-1,-1.2258078E-1,-1.2198868E-1,-2.8413063E-1,-1.14483E-1,-4.1643895E-2,-8.9354895E-2,7.783428E-2,1.3662837E-1,-5.3077843E-2,-1.11039974E-1,-2.4306683E-2,-6.449578E-2,3.1876933E-2],"categories":[],"categories_nodes":[],"categories_segments":[],"categories_sizes":[],"default_left":[0,0,0,0,0,0,0,0,0,0,0,0,0,0,1,0,0,0,0,0,0,0,0,0,0],"id":6,"left_children":[1,3,5,7,9,11,13,15,17,-1,19,21,-1,-1,23,-1,-1,-1,-1,-1,-1,-1,-1,-1,-1],"loss_changes":[6.3294385E2,3.1923517E2,9.07016E0,1.6613866E2,3.1965271E1,2.434658E0,2.4903564E0,2.4470833E1,1.8092924E2,0E0,2.4369629E1,3.875296E0,0E0,0E0,1.2015548E0,0E0,0E0,0E0,0E0,0E0,0E0,0E0,0E0,0E0,0E0],"parents":[2147483647,0,0,1,1,2,2,3,3,4,4,5,5,6,6,7,7,8,8,10,10,11,11,14,14],"right_children":[2,4,6,8,10,12,14,16,18,-1,20,22,-1,-1,24,-1,-1,-1,-1,-1,-1,-1,-1,-1,-1],"split_conditions":[3.9533332E-1,1E-1,5.87E-1,7.7017766E-1,4.6371502E-1,9.7104096E-1,1.5E-1,4.736074E-1,1.6286453E-2,-9.1495655E-2,9.9112904E-1,4.8198912E-1,-1.2258078E-1,-1.2198868E-1,9.85E-1,-1.14483E-1,-4.1643895E-2,-8.9354895E-2,7.783428E-2,1.3662837E-1,-5.3077843E-2,-1.11039974E-1,-2.4306683E-2,-6.449578E-2,3.1876933E-2],"split_indices":[12,2,12,5,5,5,2,5,13,0,5,5,0,0,12,0,0,0,0,0,0,0,0,0,0],"split_type":[0,0,0,0,0,0,0,0,0,0,0,0,0,0,0,0,0,0,0,0,0,0,0,0,0],"sum_hessian":[1.1946676E3,8.540717E2,3.4059586E2,5.512925E2,3.0277924E2,3.233606E1,3.082598E2,1.8761707E2,3.6367538E2,5.8583965E0,2.9692084E2,2.7339022E1,4.9970374E0,3.0468155E2,3.5782378E0,8.7738754E1,9.987832E1,8.314705E1,2.8052835E2,2.9047897E2,6.441853E0,6.209512E0,2.1129509E1,2.194876E0,1.3833618E0],"tree_param":{"num_deleted":"0","num_feature":"35","num_nodes":"25","size_leaf_vector":"1"}},{"base_weights":[-1.633879E-2,5.346201E-1,-1.1238705E0,1.1246334E0,-1.1207092E0,-1.1786969E0,1.5851186E-1,-7.451632E-1,1.2489513E0,-4.502795E-1,-1.1735537E0,-9.231013E-1,-1.2329267E0,8.760452E-1,-3.6336592E-1,-9.873029E-2,2.5861805E-2,-7.0104174E-2,1.3373503E-1,2.484903E-2,-7.530209E-2,-1.1866107E-1,5.2497663E-2,-1.0462063E-1,-1.2731179E-2,-1.263415E-1,-9.957468E-2,-2.5693271E-2,1.1972437E-1,7.712527E-2,-9.6608974E-2],"categories":[],"categories_nodes":[],"categories_segments":[],"categories_sizes":[],"default_left":[0,0,0,0,0,0,0,0,0,0,0,0,1,0,0,0,0,0,0,0,0,0,0,0,0,0,0,0,0,0,0],"id":7,"left_children":[1,3,5,7,9,11,13,15,17,19,21,23,25,27,29,-1,-1,-1,-1,-1,-1,-1,-1,-1,-1,-1,-1,-1,-1,-1,-1],"loss_changes":[7.1191876E2,7.6220953E2,2.7436615E1,1.3456458E2,6.7427063E0,4.015442E0,6.5989504E0,9.118742E0,9.392261E1,3.7025077E0,4.8282166E0,6.632057E0,9.3844604E-1,2.984343E0,7.868759E0,0E0,0E0,0E0,0E0,0E0,0E0,0E0,0E0,0E0,0E0,0E0,0E0,0E0,0E0,0E0,0E0],"parents":[2147483647,0,0,1,1,2,2,3,3,4,4,5,5,6,6,7,7,8,8,9,9,10,10,11,11,12,12,13,13,14,14],"right_children":[2,4,6,8,10,12,14,16,18,20,22,24,26,28,30,-1,-1,-1,-1,-1,-1,-1,-1,-1,-1,-1,-1,-1,-1,-1,-1],"split_conditions":[2.8E-1,4.56E-1,1.5E-1,5.349429E-1,6.0966665E-1,4.6E-1,5.38E-1,1E-1,4.6371502E-1,7.4994844E-1,1.5E-1,1E-1,9.888618E-1,5.9868765E-1,3.9666668E-2,-9.873029E-2,2.5861805E-2,-7.0104174E-2,1.3373503E-1,2.484903E-2,-7.530209E-2,-1.1866107E-1,5.2497663E-2,-1.0462063E-1,-1.2731179E-2,-1.263415E-1,-9.957468E-2,-2.5693271E-2,1.1972437E-1,7.712527E-2,-9.6608974E-2],"split_indices":[14,12,2,0,12,14,14,2,5,5,2,2,1,0,12,0,0,0,0,0,0,0,0,0,0,0,0,0,0,0,0],"split_type":[0,0,0,0,0,0,0,0,0,0,0,0,0,0,0,0,0,0,0,0,0,0,0,0,0,0,0,0,0,0,0],"sum_hessian":[1.1647042E3,7.78129E2,3.8657513E2,5.7389484E2,2.0423422E2,3.7080286E2,1.5772277E1,3.5466637E1,5.3842816E2,1.5617572E1,1.8861665E2,6.805739E1,3.0274545E2,6.3554645E0,9.416813E0,2.8587067E1,6.879572E0,2.3049452E1,5.153787E2,4.7751207E0,1.0842451E1,1.8747687E2,1.1397969E0,5.8667175E1,9.390217E0,2.644278E2,3.8317654E1,1.4479887E0,4.907476E0,3.1699038E0,6.2469087E0],"tree_param":{"num_deleted":"0","num_feature":"35","num_nodes":"31","size_leaf_vector":"1"}},{"base_weights":[-2.7619092E-2,5.223462E-1,-1.0272772E0,1.0909929E0,-1.094954E0,-1.1018832E0,3.7640575E-1,-5.098029E-1,1.2112111E0,-1.1118624E0,6.588213E-2,-5.125277E-1,-1.19149E0,1.1009327E0,-1.8016909E-1,-6.5628636E-5,-1.10304534E-1,-5.656867E-2,1.2759396E-1,-5.9852865E-2,-1.1511226E-1,-1.1367103E-1,-1.0842027E-2,-1.0535685E-1,-1.22115366E-1,1.691022E-2,1.2427632E-1,2.4324536E-2,-8.444407E-2],"categories":[],"categories_nodes":[],"categories_segments":[],"categories_sizes":[],"default_left":[0,0,0,0,0,0,0,0,0,0,0,0,0,0,0,0,0,0,0,0,0,0,0,0,0,0,0,0,0],"id":8,"left_children":[1,3,5,7,9,11,13,15,17,19,-1,21,23,25,27,-1,-1,-1,-1,-1,-1,-1,-1,-1,-1,-1,-1,-1,-1],"loss_changes":[6.072258E2,6.5649774E2,4.146396E1,1.02167175E2,6.2438507E0,1.9058502E1,8.476203E0,1.1345394E1,5.720819E1,3.0284424E0,0E0,1.2718E1,3.3081055E-2,9.8708534E-1,3.712402E0,0E0,0E0,0E0,0E0,0E0,0E0,0E0,0E0,0E0,0E0,0E0,0E0,0E0,0E0],"parents":[2147483647,0,0,1,1,2,2,3,3,4,4,5,5,6,6,7,7,8,8,9,9,11,11,12,12,13,13,14,14],"right_children":[2,4,6,8,10,12,14,16,18,20,-1,22,24,26,28,-1,-1,-1,-1,-1,-1,-1,-1,-1,-1,-1,-1,-1,-1],"split_conditions":[2.28E-1,4.56E-1,1.5E-1,5.695462E-1,1.5E-1,3.4E-1,4.42E-1,9.653217E-1,4.736074E-1,6.0966665E-1,6.588213E-2,7.3503494E-1,5.5E-1,2.6E-2,6.4E-2,-6.5628636E-5,-1.10304534E-1,-5.656867E-2,1.2759396E-1,-5.9852865E-2,-1.1511226E-1,-1.1367103E-1,-1.0842027E-2,-1.0535685E-1,-1.22115366E-1,1.691022E-2,1.2427632E-1,2.4324536E-2,-8.444407E-2],"split_indices":[14,12,2,0,2,14,14,5,5,12,0,5,14,12,12,0,0,0,0,0,0,0,0,0,0,0,0,0,0],"split_type":[0,0,0,0,0,0,0,0,0,0,0,0,0,0,0,0,0,0,0,0,0,0,0,0,0,0,0,0,0],"sum_hessian":[1.1025182E3,7.115397E2,3.9097845E2,5.266823E2,1.8485738E2,3.714508E2,1.9527657E1,3.6564034E1,4.901183E2,1.8345467E2,1.4026995E0,4.990947E1,3.2154135E2,8.058879E0,1.1468778E1,2.02154E1,1.6348633E1,1.6954386E1,4.7316388E2,1.4188078E1,1.6926659E2,1.890146E1,3.1008009E1,6.3378662E1,2.5816266E2,1.354177E0,6.7047014E0,7.391296E0,4.0774813E0],"tree_param":{"num_deleted":"0","num_feature":"35","num_nodes":"29","size_leaf_vector":"1"}},{"base_weights":[-2.1295987E-2,5.0548345E-1,-9.8915553E-1,8.9149934E-1,-1.0167694E0,-1.0575747E0,2.9526517E-1,-8.086673E-1,9.855549E-1,-3.9071345E-1,-1.13344386E-1,-5.5469173E-1,-1.1585357E0,1.040747E0,-2.6613164E-1,-1.1220994E-1,-4.0165503E-2,1.0635247E-1,-1.05654135E-1,-4.896607E-2,6.6536926E-2,-1.5920743E-2,-1.1066772E-1,-4.6726834E-2,-1.1617499E-1,2.7680472E-2,1.1285179E-1,-6.737005E-2,3.2380152E-2],"categories":[],"categories_nodes":[],"categories_segments":[],"categories_sizes":[],"default_left":[0,0,0,0,0,0,0,0,0,0,0,0,0,0,1,0,0,0,0,0,0,0,0,0,0,0,0,0,0],"id":9,"left_children":[1,3,5,7,9,11,13,15,17,19,-1,21,23,25,27,-1,-1,-1,-1,-1,-1,-1,-1,-1,-1,-1,-1,-1,-1],"loss_changes":[5.321825E2,3.981023E2,3.264096E1,8.7107666E1,9.579025E0,1.7101562E1,8.390635E0,3.2288818E0,8.262973E1,2.7374659E0,0E0,1.2998833E1,1.01745605E-1,2.5968742E-1,3.0686026E0,0E0,0E0,0E0,0E0,0E0,0E0,0E0,0E0,0E0,0E0,0E0,0E0,0E0,0E0],"parents":[2147483647,0,0,1,1,2,2,3,3,4,4,5,5,6,6,7,7,8,8,9,9,11,11,12,12,13,13,14,14],"right_children":[2,4,6,8,10,12,14,16,18,20,-1,22,24,26,28,-1,-1,-1,-1,-1,-1,-1,-1,-1,-1,-1,-1,-1,-1],"split_conditions":[2.28E-1,2.22138E-1,1.5E-1,4.9561304E-1,4.68336E-1,3.6E-1,4.42E-1,3.5673957E-2,7.5678676E-1,1.5E-1,-1.13344386E-1,1.9524074E-1,2.0163737E-3,6.08259E-1,9.4684887E-1,-1.1220994E-1,-4.0165503E-2,1.0635247E-1,-1.05654135E-1,-4.896607E-2,6.6536926E-2,-1.5920743E-2,-1.1066772E-1,-4.6726834E-2,-1.1617499E-1,2.7680472E-2,1.1285179E-1,-6.737005E-2,3.2380152E-2],"split_indices":[14,11,2,1,11,14,14,13,13,2,0,13,13,0,0,0,0,0,0,0,0,0,0,0,0,0,0,0,0],"split_type":[0,0,0,0,0,0,0,0,0,0,0,0,0,0,0,0,0,0,0,0,0,0,0,0,0,0,0,0,0],"sum_hessian":[1.0418246E3,6.749471E2,3.6687747E2,5.387453E2,1.3620177E2,3.484905E2,1.838696E1,2.7843454E1,5.1090186E2,2.2078873E1,1.14122894E2,5.9352417E1,2.891381E2,7.5317087E0,1.0855251E1,1.4737488E1,1.3105967E1,4.9257394E2,1.8327919E1,2.067785E1,1.4010215E0,3.5328686E1,2.4023731E1,2.0156257E0,2.8712247E2,1.2042078E0,6.3275013E0,6.3359323E0,4.5193186E0],"tree_param":{"num_deleted":"0","num_feature":"35","num_nodes":"29","size_leaf_vector":"1"}},{"base_weights":[-3.1176157E-2,3.175761E-1,-1.0874554E0,-6.918646E-2,1.0542978E0,-8.103521E-1,-1.1277384E0,-8.1452185E-1,2.2804074E-1,-1.764697E-1,1.1621811E0,-8.549762E-1,-2.7954108E-1,-1.13801256E-1,-2.0084137E-1,-1.0351308E-1,-3.6281165E-2,-8.127816E-2,5.021515E-2,-9.6084885E-2,6.555976E-3,-4.3520335E-2,1.217106E-1,-9.7490124E-2,-6.277103E-2,1.0737869E-2,-6.896837E-2,2.8108591E-2,-7.025433E-2],"categories":[],"categories_nodes":[],"categories_segments":[],"categories_sizes":[],"default_left":[0,0,0,0,0,0,0,0,0,0,0,0,0,0,1,0,0,0,0,0,0,0,0,0,0,0,0,0,0],"id":10,"left_children":[1,3,5,7,9,11,13,15,17,19,21,23,25,-1,27,-1,-1,-1,-1,-1,-1,-1,-1,-1,-1,-1,-1,-1,-1],"loss_changes":[3.6250684E2,2.10888E2,1.8126221E0,1.07874344E2,3.403235E1,5.794792E-1,1.7779541E0,1.345639E1,9.9778534E1,4.1255937E0,2.1091766E1,2.4353981E-1,7.3507464E-1,0E0,1.0495695E0,0E0,0E0,0E0,0E0,0E0,0E0,0E0,0E0,0E0,0E0,0E0,0E0,0E0,0E0],"parents":[2147483647,0,0,1,1,2,2,3,3,4,4,5,5,6,6,7,7,8,8,9,9,10,10,11,11,12,12,14,14],"right_children":[2,4,6,8,10,12,14,16,18,20,22,24,26,-1,28,-1,-1,-1,-1,-1,-1,-1,-1,-1,-1,-1,-1,-1,-1],"split_conditions":[4.9566665E-1,1E-1,7.87E-1,6.681878E-1,5.695462E-1,1E-1,1.5E-1,5.646363E-1,5.8861816E-1,3.362613E-1,5.367972E-1,4.1806E-2,8.950026E-1,-1.13801256E-1,2.2196E-2,-1.0351308E-1,-3.6281165E-2,-8.127816E-2,5.021515E-2,-9.6084885E-2,6.555976E-3,-4.3520335E-2,1.217106E-1,-9.7490124E-2,-6.277103E-2,1.0737869E-2,-6.896837E-2,2.8108591E-2,-7.025433E-2],"split_indices":[12,2,12,0,0,2,2,0,5,0,5,11,5,0,11,0,0,0,0,0,0,0,0,0,0,0,0,0,0],"split_type":[0,0,0,0,0,0,0,0,0,0,0,0,0,0,0,0,0,0,0,0,0,0,0,0,0,0,0,0,0],"sum_hessian":[9.8212E2,7.388671E2,2.4325282E2,4.8510425E2,2.5376291E2,3.3554054E1,2.0969876E2,1.3780359E2,3.4730066E2,2.0399805E1,2.333631E2,3.038865E1,3.1654027E0,2.0717458E2,2.5241985E0,9.171816E1,4.608543E1,7.1988594E1,2.7531204E2,4.109995E0,1.628981E1,7.5271277E0,2.2583597E2,1.7738565E1,1.2650085E1,2.008664E0,1.1567388E0,1.51176E0,1.0124384E0],"tree_param":{"num_deleted":"0","num_feature":"35","num_nodes":"29","size_leaf_vector":"1"}},{"base_weights":[-1.774409E-2,4.600006E-1,-9.333276E-1,8.5428035E-1,-8.227027E-1,-1.0607984E0,-2.3257273E-1,-4.9961075E-1,9.743493E-1,-1.4079821E-1,-1.0637205E0,-6.4333326E-1,-1.1100688E0,5.601727E-1,-7.88949E-1,-1.03377126E-1,7.0226872E-3,-1.0873115E-1,1.0309639E-1,-9.397136E-2,7.024529E-3,-7.662063E-2,-1.1179592E-1,-1.10520534E-1,-3.679083E-2,-1.1389422E-1,-8.8542126E-2,-6.742057E-2,9.382022E-2,-1.0403212E-1,-1.6458476E-2],"categories":[],"categories_nodes":[],"categories_segments":[],"categories_sizes":[],"default_left":[0,0,0,0,0,0,0,0,0,0,0,0,1,1,0,0,0,0,0,0,0,0,0,0,0,0,0,0,0,0,0],"id":11,"left_children":[1,3,5,7,9,11,13,15,17,19,21,23,25,27,29,-1,-1,-1,-1,-1,-1,-1,-1,-1,-1,-1,-1,-1,-1,-1,-1],"loss_changes":[4.1402237E2,3.152766E2,2.8742798E1,7.7906494E1,2.3968727E1,4.9279785E0,2.303756E1,1.2082589E1,5.222046E1,6.7218533E0,8.9060974E-1,3.5795813E0,5.7403564E-1,1.0763979E1,4.6184883E0,0E0,0E0,0E0,0E0,0E0,0E0,0E0,0E0,0E0,0E0,0E0,0E0,0E0,0E0,0E0,0E0],"parents":[2147483647,0,0,1,1,2,2,3,3,4,4,5,5,6,6,7,7,8,8,9,9,10,10,11,11,12,12,13,13,14,14],"right_children":[2,4,6,8,10,12,14,16,18,20,22,24,26,28,30,-1,-1,-1,-1,-1,-1,-1,-1,-1,-1,-1,-1,-1,-1,-1,-1],"split_conditions":[2.28E-1,9.892E-2,1E-1,5.744425E-1,3.515E-1,3.2E-1,4.6E-1,4.4522077E-1,1.9480178E-1,9.947249E-1,7.502E-1,6.3950235E-1,9.888618E-1,4.8001066E-1,1.5E-1,-1.03377126E-1,7.0226872E-3,-1.0873115E-1,1.0309639E-1,-9.397136E-2,7.024529E-3,-7.662063E-2,-1.1179592E-1,-1.10520534E-1,-3.679083E-2,-1.1389422E-1,-8.8542126E-2,-6.742057E-2,9.382022E-2,-1.0403212E-1,-1.6458476E-2],"split_indices":[14,11,2,0,11,14,14,0,5,1,11,5,1,0,2,0,0,0,0,0,0,0,0,0,0,0,0,0,0,0,0],"split_type":[0,0,0,0,0,0,0,0,0,0,0,0,0,0,0,0,0,0,0,0,0,0,0,0,0,0,0,0,0,0,0],"sum_hessian":[9.445389E2,6.2100214E2,3.2353674E2,4.7525223E2,1.4574991E2,2.7330704E2,5.02297E1,3.8456608E1,4.3679562E2,3.8475746E1,1.0727416E2,3.0335278E1,2.4297176E2,2.0711859E1,2.951784E1,1.942946E1,1.9027147E1,1.1187539E1,4.256081E2,7.318502E0,3.1157244E1,1.8873653E1,8.8400505E1,1.0206624E1,2.0128654E1,2.116935E2,3.1278252E1,4.672216E0,1.6039642E1,2.0570032E1,8.947806E0],"tree_param":{"num_deleted":"0","num_feature":"35","num_nodes":"31","size_leaf_vector":"1"}},{"base_weights":[-1.6951505E-2,3.9553398E-1,-9.939832E-1,8.468323E-1,-1.0265623E0,-1.0588037E0,1.8216553E-1,-1.970602E-1,9.975574E-1,-4.061819E-1,-1.0789454E0,-7.1917623E-1,-1.117945E0,3.694785E-1,-9.0464465E-2,-1.1380553E-1,3.2328974E-2,1.0611419E-1,-9.702249E-2,-8.5128136E-2,5.7120647E-2,-6.874109E-2,-1.1170705E-1,-3.7739437E-2,-1.1221712E-1,-1.1542728E-1,-8.400094E-2,-7.077713E-2,6.531786E-2],"categories":[],"categories_nodes":[],"categories_segments":[],"categories_sizes":[],"default_left":[0,0,0,0,0,0,0,0,0,0,0,0,1,1,0,0,0,0,0,0,0,0,0,0,0,0,0,0,0],"id":12,"left_children":[1,3,5,7,9,11,13,15,17,19,21,23,25,27,-1,-1,-1,-1,-1,-1,-1,-1,-1,-1,-1,-1,-1,-1,-1],"loss_changes":[3.6485696E2,4.0943588E2,2.0681671E1,7.631735E1,4.560196E0,4.315033E0,3.3656237E0,3.0665121E1,5.3945435E1,6.3939223E0,1.340271E0,5.16873E0,1.2037659E0,4.561124E0,0E0,0E0,0E0,0E0,0E0,0E0,0E0,0E0,0E0,0E0,0E0,0E0,0E0,0E0,0E0],"parents":[2147483647,0,0,1,1,2,2,3,3,4,4,5,5,6,6,7,7,8,8,9,9,10,10,11,11,12,12,13,13],"right_children":[2,4,6,8,10,12,14,16,18,20,22,24,26,28,-1,-1,-1,-1,-1,-1,-1,-1,-1,-1,-1,-1,-1,-1,-1],"split_conditions":[3.2E-1,4.7866666E-1,1.5E-1,5.519019E-1,6.0966665E-1,4.6E-1,3.4156078E-1,2.1759398E-2,6.5346533E-1,2.4202743E-1,2.0124E-2,2.6045895E-1,9.888618E-1,4.2562917E-1,-9.0464465E-2,-1.1380553E-1,3.2328974E-2,1.0611419E-1,-9.702249E-2,-8.5128136E-2,5.7120647E-2,-6.874109E-2,-1.1170705E-1,-3.7739437E-2,-1.1221712E-1,-1.1542728E-1,-8.400094E-2,-7.077713E-2,6.531786E-2],"split_indices":[14,12,2,1,12,14,13,13,13,13,11,13,1,1,0,0,0,0,0,0,0,0,0,0,0,0,0,0,0],"split_type":[0,0,0,0,0,0,0,0,0,0,0,0,0,0,0,0,0,0,0,0,0,0,0,0,0,0,0,0,0],"sum_hessian":[9.0335114E2,6.356051E2,2.6774603E2,4.8279572E2,1.5280937E2,2.5385522E2,1.3890815E1,6.0875626E1,4.219201E2,1.2579745E1,1.4022961E2,3.9600986E1,2.1425424E2,1.2411682E1,1.4791331E0,2.1253654E1,3.962197E1,4.0915976E2,1.2760326E1,8.732168E0,3.8475769E0,1.4131641E1,1.2609798E2,2.2475704E1,1.7125282E1,1.8669856E2,2.7555681E1,2.2757077E0,1.0135974E1],"tree_param":{"num_deleted":"0","num_feature":"35","num_nodes":"29","size_leaf_vector":"1"}},{"base_weights":[-1.6490962E-2,4.5127025E-1,-8.5348445E-1,9.220848E-1,-9.5938104E-1,-3.3255324E-1,-1.0248954E0,-6.1325634E-1,9.958273E-1,-3.2713607E-1,-1.0412589E0,-6.4881426E-1,4.9586135E-1,-1.0664436E0,-1.180103E-1,-9.9690996E-2,-1.1938425E-2,1.0320959E-1,-8.905081E-2,-1.144673E-1,-2.8074682E-3,-4.9229383E-2,-1.076095E-1,-3.8079217E-2,-1.2510264E-1,-6.715328E-2,8.214652E-2,-1.09574355E-1,-8.3460525E-2,4.6024676E-2,-9.513221E-2],"categories":[],"categories_nodes":[],"categories_segments":[],"categories_sizes":[],"default_left":[0,0,0,0,0,0,0,0,0,0,0,0,1,1,1,0,0,0,0,0,0,0,0,0,0,0,0,0,0,0,0],"id":13,"left_children":[1,3,5,7,9,11,13,15,17,19,21,23,25,27,29,-1,-1,-1,-1,-1,-1,-1,-1,-1,-1,-1,-1,-1,-1,-1,-1],"loss_changes":[3.3396707E2,3.6432944E2,2.6965408E1,4.712155E1,6.773567E0,2.0545565E1,8.525818E0,3.565425E0,2.7762024E1,4.176793E0,1.7882996E0,8.610405E0,8.873722E0,5.760498E-1,5.8266172E0,0E0,0E0,0E0,0E0,0E0,0E0,0E0,0E0,0E0,0E0,0E0,0E0,0E0,0E0,0E0,0E0],"parents":[2147483647,0,0,1,1,2,2,3,3,4,4,5,5,6,6,7,7,8,8,9,9,10,10,11,11,12,12,13,13,14,14],"right_children":[2,4,6,8,10,12,14,16,18,20,22,24,26,28,30,-1,-1,-1,-1,-1,-1,-1,-1,-1,-1,-1,-1,-1,-1,-1,-1],"split_conditions":[2E-1,4.14E-1,3.78E-1,4.9561304E-1,6.0966665E-1,1E-1,1.5E-1,4.1788947E-2,8.0519825E-1,3.275332E-2,9.8337364E-1,1.0166667E-1,5.049998E-1,1E0,5.2333333E-2,-9.9690996E-2,-1.1938425E-2,1.0320959E-1,-8.905081E-2,-1.144673E-1,-2.8074682E-3,-4.9229383E-2,-1.076095E-1,-3.8079217E-2,-1.2510264E-1,-6.715328E-2,8.214652E-2,-1.09574355E-1,-8.3460525E-2,4.6024676E-2,-9.513221E-2],"split_indices":[14,12,14,1,12,2,2,13,13,13,0,12,0,1,12,0,0,0,0,0,0,0,0,0,0,0,0,0,0,0,0],"split_type":[0,0,0,0,0,0,0,0,0,0,0,0,0,0,0,0,0,0,0,0,0,0,0,0,0,0,0,0,0,0,0],"sum_hessian":[8.5103265E2,5.4622876E2,3.0480392E2,4.0980115E2,1.3642761E2,7.619164E1,2.2861227E2,1.8445436E1,3.913557E2,1.6214878E1,1.2021273E2,5.529765E1,2.0893995E1,2.1842918E2,1.0183084E1,9.807859E0,8.637577E0,3.8441736E2,6.9383416E0,3.5855615E0,1.2629315E1,8.076169E0,1.12136566E2,3.93962E1,1.5901451E1,4.3250127E0,1.6568983E1,1.9061295E2,2.7816242E1,6.275818E0,3.9072661E0],"tree_param":{"num_deleted":"0","num_feature":"35","num_nodes":"31","size_leaf_vector":"1"}},{"base_weights":[-1.8356081E-2,4.3681148E-1,-8.4202063E-1,9.583011E-1,-7.6484483E-1,-4.0135813E-1,-9.949477E-1,-4.6111932E-1,1.0262847E0,-9.570595E-2,-1.0253952E0,-1.0173936E0,-5.0499357E-2,-1.0248333E0,-7.703121E-1,-1.0281892E-1,1.0922535E-2,1.06883466E-1,-1.0035788E-1,-1.6315314E-1,2.4543623E-2,-4.1975126E-2,-1.0578948E-1,-7.388831E-2,-1.15485035E-1,5.508382E-2,-1.085576E-1,-7.070234E-2,-1.05247416E-1,8.923984E-2,-8.899947E-2],"categories":[],"categories_nodes":[],"categories_segments":[],"categories_sizes":[],"default_left":[0,0,0,0,0,0,1,0,0,0,0,0,0,0,0,0,0,0,0,0,0,0,0,0,0,0,0,0,0,0,0],"id":14,"left_children":[1,3,5,7,9,11,13,15,17,19,21,23,25,27,29,-1,-1,-1,-1,-1,-1,-1,-1,-1,-1,-1,-1,-1,-1,-1,-1],"loss_changes":[3.044194E2,3.2847754E2,1.907611E1,3.571118E1,2.7594498E1,1.640376E1,6.463318E-1,5.7336082E0,3.1197937E1,2.4301477E1,1.8041763E0,2.0230675E-1,3.144416E1,8.8742065E-1,6.592764E0,0E0,0E0,0E0,0E0,0E0,0E0,0E0,0E0,0E0,0E0,0E0,0E0,0E0,0E0,0E0,0E0],"parents":[2147483647,0,0,1,1,2,2,3,3,4,4,5,5,6,6,7,7,8,8,9,9,10,10,11,11,12,12,13,13,14,14],"right_children":[2,4,6,8,10,12,14,16,18,20,22,24,26,28,30,-1,-1,-1,-1,-1,-1,-1,-1,-1,-1,-1,-1,-1,-1,-1,-1],"split_conditions":[2E-1,2.23E-1,3.78E-1,4.736074E-1,5.87E-1,8.0475926E-1,9.9999994E-1,1.9480178E-1,9.9188656E-1,9.9559236E-1,1.0966E-2,8.145726E-1,9.8615927E-1,4.54E-1,9.266666E-2,-1.0281892E-1,1.0922535E-2,1.06883466E-1,-1.0035788E-1,-1.6315314E-1,2.4543623E-2,-4.1975126E-2,-1.0578948E-1,-7.388831E-2,-1.15485035E-1,5.508382E-2,-1.085576E-1,-7.070234E-2,-1.05247416E-1,8.923984E-2,-8.899947E-2],"split_indices":[14,12,14,5,12,5,0,5,5,0,11,0,5,14,12,0,0,0,0,0,0,0,0,0,0,0,0,0,0,0,0],"split_type":[0,0,0,0,0,0,0,0,0,0,0,0,0,0,0,0,0,0,0,0,0,0,0,0,0,0,0,0,0,0,0],"sum_hessian":[8.1000885E2,5.2200946E2,2.8799942E2,3.6417072E2,1.5783873E2,7.513133E1,2.1286809E2,1.6380531E1,3.477902E2,4.4618343E1,1.1322039E2,2.6573692E1,4.8557644E1,1.8472935E2,2.813872E1,7.8113155E0,8.569215E0,3.4111322E2,6.6769733E0,7.4219766E0,3.719637E1,6.474824E0,1.0674556E2,1.0888049E1,1.5685643E1,3.1009947E1,1.7547695E1,1.6907581E1,1.6782178E2,1.4559076E0,2.6682812E1],"tree_param":{"num_deleted":"0","num_feature":"35","num_nodes":"31","size_leaf_vector":"1"}},{"base_weights":[2.5050663E-3,-3.263879E-1,8.418619E-1,-8.824202E-1,-1.2514053E-1,-3.017832E-1,9.342584E-1,-9.8866343E-1,-5.83543E-1,1.2311696E-1,-7.356586E-1,-7.9123735E-1,4.714599E-2,9.887558E-1,-8.250213E-2,-8.716723E-2,-1.0703935E-1,-1.0407449E-1,-4.8342995E-2,-9.690537E-2,3.6852114E-2,-4.3431677E-2,-1.0075392E-1,-9.502186E-2,-3.8418617E-2,-2.4110988E-2,6.521121E-2,1.04304805E-1,-7.6609813E-3],"categories":[],"categories_nodes":[],"categories_segments":[],"categories_sizes":[],"default_left":[0,0,0,0,0,0,0,0,1,0,0,0,0,0,0,0,0,0,0,0,0,0,0,0,0,0,0,0,0],"id":15,"left_children":[1,3,5,7,9,11,13,15,17,19,21,23,25,27,-1,-1,-1,-1,-1,-1,-1,-1,-1,-1,-1,-1,-1,-1,-1],"loss_changes":[2.0887418E2,6.072114E1,2.2790512E1,4.005234E0,6.076552E1,2.8857884E0,1.9735138E1,7.1128845E-2,1.3407497E0,7.686481E1,9.055473E0,8.779287E-2,2.0198307E0,1.1177124E1,0E0,0E0,0E0,0E0,0E0,0E0,0E0,0E0,0E0,0E0,0E0,0E0,0E0,0E0,0E0],"parents":[2147483647,0,0,1,1,2,2,3,3,4,4,5,5,6,6,7,7,8,8,9,9,10,10,11,11,12,12,13,13],"right_children":[2,4,6,8,10,12,14,16,18,20,22,24,26,28,-1,-1,-1,-1,-1,-1,-1,-1,-1,-1,-1,-1,-1,-1,-1],"split_conditions":[1E-1,6.3950235E-1,6.584392E-1,4.9924475E-1,3.141E-2,3.991387E-1,3.515E-1,8.0519825E-1,1.19E-3,1.6286453E-2,3.515E-1,2.1441019E-1,1.5E-1,9.867724E-1,-8.250213E-2,-8.716723E-2,-1.0703935E-1,-1.0407449E-1,-4.8342995E-2,-9.690537E-2,3.6852114E-2,-4.3431677E-2,-1.0075392E-1,-9.502186E-2,-3.8418617E-2,-2.4110988E-2,6.521121E-2,1.04304805E-1,-7.6609813E-3],"split_indices":[2,5,5,5,11,5,11,13,11,13,11,5,2,5,0,0,0,0,0,0,0,0,0,0,0,0,0,0,0],"split_type":[0,0,0,0,0,0,0,0,0,0,0,0,0,0,0,0,0,0,0,0,0,0,0,0,0,0,0,0,0],"sum_hessian":[7.5463464E2,5.4262427E2,2.1201038E2,1.4330313E2,3.9932117E2,1.5678791E1,1.9633157E2,1.0401906E2,3.928407E1,2.8445172E2,1.14869446E2,5.9978285E0,9.680963E0,1.9085735E2,5.4742327E0,4.7578617E1,5.644044E1,5.3689876E0,3.391508E1,5.1647194E1,2.3280452E2,5.5714794E1,5.915465E1,3.353617E0,2.6442113E0,6.964126E0,2.7168365E0,1.8162262E2,9.234734E0],"tree_param":{"num_deleted":"0","num_feature":"35","num_nodes":"29","size_leaf_vector":"1"}},{"base_weights":[-9.766504E-3,4.215612E-1,-7.844343E-1,7.828898E-1,-5.5428886E-1,-9.2929727E-1,-1.3662821E-1,-4.2578855E-1,8.914828E-1,-1.2245401E-1,-1.0293748E-1,-5.5806214E-1,-1.0334463E0,5.175974E-1,-5.1866955E-1,-6.534922E-2,3.226093E-2,-8.521526E-2,9.3380034E-2,-3.3944752E-2,7.742298E-2,-1.1218943E-1,-1.6280187E-2,-1.0695105E-1,-7.593127E-2,-6.291915E-2,7.717802E-2,-8.1030615E-2,-4.2749713E-3],"categories":[],"categories_nodes":[],"categories_segments":[],"categories_sizes":[],"default_left":[0,0,0,0,0,0,0,0,0,0,0,0,1,1,0,0,0,0,0,0,0,0,0,0,0,0,0,0,0],"id":16,"left_children":[1,3,5,7,9,11,13,15,17,19,-1,21,23,25,27,-1,-1,-1,-1,-1,-1,-1,-1,-1,-1,-1,-1,-1,-1],"loss_changes":[2.4569263E2,1.6698138E2,2.455194E1,4.567775E1,2.617923E1,7.726227E0,1.2573804E1,5.174536E0,2.4185349E1,1.3552647E1,0E0,1.0786919E1,8.342285E-1,5.922329E0,4.3487587E0,0E0,0E0,0E0,0E0,0E0,0E0,0E0,0E0,0E0,0E0,0E0,0E0,0E0,0E0],"parents":[2147483647,0,0,1,1,2,2,3,3,4,4,5,5,6,6,7,7,8,8,9,9,11,11,12,12,13,13,14,14],"right_children":[2,4,6,8,10,12,14,16,18,20,-1,22,24,26,28,-1,-1,-1,-1,-1,-1,-1,-1,-1,-1,-1,-1,-1,-1],"split_conditions":[2E-1,3.8532E-2,1E-1,5.226615E-1,5.4884E-1,3.6E-1,3.4E-1,1E-1,1.9480178E-1,1E-1,-1.0293748E-1,8.0475926E-1,9.888618E-1,4.7712126E-1,1.5E-1,-6.534922E-2,3.226093E-2,-8.521526E-2,9.3380034E-2,-3.3944752E-2,7.742298E-2,-1.1218943E-1,-1.6280187E-2,-1.0695105E-1,-7.593127E-2,-6.291915E-2,7.717802E-2,-8.1030615E-2,-4.2749713E-3],"split_indices":[14,11,2,1,11,14,14,2,5,2,0,5,1,1,2,0,0,0,0,0,0,0,0,0,0,0,0,0,0],"split_type":[0,0,0,0,0,0,0,0,0,0,0,0,0,0,0,0,0,0,0,0,0,0,0,0,0,0,0,0,0],"sum_hessian":[7.333182E2,4.7133765E2,2.6198053E2,3.4411844E2,1.272192E2,2.1374759E2,4.8232944E1,2.8127571E1,3.1599088E2,6.730202E1,5.9917187E1,4.822168E1,1.6552591E2,1.7651266E1,3.0581678E1,2.1663239E1,6.464332E0,7.033852E0,3.0895703E2,5.468897E1,1.2613048E1,1.9115448E1,2.910623E1,1.437175E2,2.1808413E1,2.934848E0,1.4716418E1,1.8526379E1,1.20553E1],"tree_param":{"num_deleted":"0","num_feature":"35","num_nodes":"29","size_leaf_vector":"1"}},{"base_weights":[-2.5410367E-2,2.45215E-1,-9.6972746E-1,-4.74181E-1,4.9677265E-1,-6.189487E-1,-1.0302523E0,-1.7871673E-1,-1.0328586E0,-2.0411643E-1,7.623442E-1,-3.8293567E-1,-9.642767E-1,-7.781379E-1,-1.0684979E-1,-9.8569706E-2,3.5264865E-2,-5.9158545E-2,-1.0877482E-1,-7.983195E-2,4.174907E-3,8.943852E-2,-3.5593405E-3,-9.44358E-2,1.6039973E-3,-1.3059571E-2,-1.0548153E-1,-1.0251369E-1,-3.4991216E-2],"categories":[],"categories_nodes":[],"categories_segments":[],"categories_sizes":[],"default_left":[0,0,0,0,0,0,0,0,0,0,0,0,0,0,0,0,0,0,0,0,0,0,0,0,0,0,0,0,0],"id":17,"left_children":[1,3,5,7,9,11,13,15,17,19,21,23,25,27,-1,-1,-1,-1,-1,-1,-1,-1,-1,-1,-1,-1,-1,-1,-1],"loss_changes":[1.758272E2,9.702507E1,2.6159363E0,2.2773119E1,7.400687E1,1.6728554E0,4.1426086E-1,3.9873775E1,5.167351E-1,1.6076412E1,3.036995E1,3.7205575E0,5.8033085E-1,1.830431E0,0E0,0E0,0E0,0E0,0E0,0E0,0E0,0E0,0E0,0E0,0E0,0E0,0E0,0E0,0E0],"parents":[2147483647,0,0,1,1,2,2,3,3,4,4,5,5,6,6,7,7,8,8,9,9,10,10,11,11,12,12,13,13],"right_children":[2,4,6,8,10,12,14,16,18,20,22,24,26,28,-1,-1,-1,-1,-1,-1,-1,-1,-1,-1,-1,-1,-1,-1,-1],"split_conditions":[4.9566665E-1,6.984652E-1,7.87E-1,9.7688574E-1,7.929026E-1,8.950026E-1,2.0124E-2,7.777834E-1,4.4E-2,4.4182304E-1,1.6533333E-1,4.9924475E-1,9.432E-3,8.430255E-1,-1.0684979E-1,-9.8569706E-2,3.5264865E-2,-5.9158545E-2,-1.0877482E-1,-7.983195E-2,4.174907E-3,8.943852E-2,-3.5593405E-3,-9.44358E-2,1.6039973E-3,-1.3059571E-2,-1.0548153E-1,-1.0251369E-1,-3.4991216E-2],"split_indices":[12,0,12,5,5,5,11,5,12,5,12,5,11,5,0,0,0,0,0,0,0,0,0,0,0,0,0,0,0],"split_type":[0,0,0,0,0,0,0,0,0,0,0,0,0,0,0,0,0,0,0,0,0,0,0,0,0,0,0,0,0],"sum_hessian":[6.860874E2,5.338386E2,1.5224883E2,1.3807927E2,3.9575934E2,2.4055996E1,1.2819283E2,9.1178276E1,4.6900986E1,1.0881339E2,2.8694595E2,1.5542464E1,8.513532E0,1.9696888E1,1.0849594E2,3.5861176E1,5.5317104E1,6.491521E0,4.0409462E1,3.1189127E1,7.762427E1,2.4610083E2,4.0845104E1,5.8888946E0,9.65357E0,1.0732702E0,7.440261E0,1.1607694E1,8.089193E0],"tree_param":{"num_deleted":"0","num_feature":"35","num_nodes":"29","size_leaf_vector":"1"}},{"base_weights":[-1.4159602E-2,2.2886497E-1,-9.647183E-1,-5.2404694E-2,8.111094E-1,-9.8496896E-1,2.9660732E-2,-6.3970834E-1,1.7715687E-1,-3.309319E-2,9.559162E-1,-7.047237E-1,-1.050544E-1,4.530534E-2,-3.5198703E-2,-3.675917E-2,-1.0605236E-1,-3.427727E-2,4.7631733E-2,2.3680177E-2,-8.098623E-2,-7.010537E-2,9.9583045E-2,-2.4712505E-2,-8.310034E-2],"categories":[],"categories_nodes":[],"categories_segments":[],"categories_sizes":[],"default_left":[0,0,0,0,0,0,0,0,0,0,0,0,0,0,0,0,0,0,0,0,0,0,0,0,0],"id":18,"left_children":[1,3,5,7,9,11,13,15,17,19,21,23,-1,-1,-1,-1,-1,-1,-1,-1,-1,-1,-1,-1,-1],"loss_changes":[1.5513068E2,8.7633865E1,2.7824783E0,4.8861736E1,2.1336243E1,1.722702E0,7.572872E-1,1.1270737E1,4.072028E1,5.7439055E0,1.0538773E1,1.438777E0,0E0,0E0,0E0,0E0,0E0,0E0,0E0,0E0,0E0,0E0,0E0,0E0,0E0],"parents":[2147483647,0,0,1,1,2,2,3,3,4,4,5,5,6,6,7,7,8,8,9,9,10,10,11,11],"right_children":[2,4,6,8,10,12,14,16,18,20,22,24,-1,-1,-1,-1,-1,-1,-1,-1,-1,-1,-1,-1,-1],"split_conditions":[5.87E-1,1E-1,1.5E-1,6.9423634E-1,6.3645256E-1,9.543333E-1,9.1918E-2,9.672467E-1,7.929026E-1,9.782406E-1,3.8549992E-1,9.4374704E-1,-1.050544E-1,4.530534E-2,-3.5198703E-2,-3.675917E-2,-1.0605236E-1,-3.427727E-2,4.7631733E-2,2.3680177E-2,-8.098623E-2,-7.010537E-2,9.9583045E-2,-2.4712505E-2,-8.310034E-2],"split_indices":[12,2,2,0,0,12,11,5,5,5,5,0,0,0,0,0,0,0,0,0,0,0,0,0,0],"split_type":[0,0,0,0,0,0,0,0,0,0,0,0,0,0,0,0,0,0,0,0,0,0,0,0,0],"sum_hessian":[6.695791E2,5.3385126E2,1.3572784E2,3.605752E2,1.7327606E2,1.3302817E2,2.6996713E0,1.0082944E2,2.5974576E2,2.5483343E1,1.4779271E2,2.7452513E1,1.0557566E2,1.1911423E0,1.5085288E0,6.2371178E1,3.845826E1,9.481503E1,1.6493073E2,1.9428051E1,6.0552936E0,3.0867674E0,1.4470595E2,6.5768814E0,2.0875631E1],"tree_param":{"num_deleted":"0","num_feature":"35","num_nodes":"25","size_leaf_vector":"1"}},{"base_weights":[-2.726378E-2,4.1226524E-1,-7.92834E-1,7.9039466E-1,-8.4144163E-1,-9.359126E-1,-2.2515051E-1,8.4043026E-1,-6.8664217E-1,-2.78892E-1,-9.6751004E-1,-6.7175263E-1,-1.0262359E0,3.155247E-1,-5.911959E-1,-3.0414933E-2,9.0514645E-2,-1.0020436E-1,7.332269E-2,4.1574802E-2,-6.6515245E-2,-2.23181E-2,-1.01675704E-1,-1.1013212E-1,-3.3661813E-2,-1.0657134E-1,-6.986158E-2,-8.889022E-2,5.1301368E-2,-8.847666E-2,-1.1022619E-2],"categories":[],"categories_nodes":[],"categories_segments":[],"categories_sizes":[],"default_left":[0,0,0,0,0,0,0,0,0,0,0,0,1,0,0,0,0,0,0,0,0,0,0,0,0,0,0,0,0,0,0],"id":19,"left_children":[1,3,5,7,9,11,13,15,17,19,21,23,25,27,29,-1,-1,-1,-1,-1,-1,-1,-1,-1,-1,-1,-1,-1,-1,-1,-1],"loss_changes":[2.15269E2,1.9335153E2,1.8740295E1,2.3693527E1,6.4440536E0,3.7493896E0,9.742645E0,2.2718552E1,5.5708656E0,5.303743E0,2.5931091E0,6.870228E0,1.0239716E0,5.247651E0,4.017007E0,0E0,0E0,0E0,0E0,0E0,0E0,0E0,0E0,0E0,0E0,0E0,0E0,0E0,0E0,0E0,0E0],"parents":[2147483647,0,0,1,1,2,2,3,3,4,4,5,5,6,6,7,7,8,8,9,9,10,10,11,11,12,12,13,13,14,14],"right_children":[2,4,6,8,10,12,14,16,18,20,22,24,26,28,30,-1,-1,-1,-1,-1,-1,-1,-1,-1,-1,-1,-1,-1,-1,-1,-1],"split_conditions":[2E-1,3.9533332E-1,1E-1,9.904819E-1,6.0966665E-1,4.2E-1,4E-1,4.9924475E-1,1.5E-1,7.541359E-1,1.0966E-2,8.0475926E-1,9.888618E-1,6.7682177E-1,1.5E-1,-3.0414933E-2,9.0514645E-2,-1.0020436E-1,7.332269E-2,4.1574802E-2,-6.6515245E-2,-2.23181E-2,-1.01675704E-1,-1.1013212E-1,-3.3661813E-2,-1.0657134E-1,-6.986158E-2,-8.889022E-2,5.1301368E-2,-8.847666E-2,-1.1022619E-2],"split_indices":[14,12,2,5,12,14,14,5,2,5,11,5,1,5,2,0,0,0,0,0,0,0,0,0,0,0,0,0,0,0,0],"split_type":[0,0,0,0,0,0,0,0,0,0,0,0,0,0,0,0,0,0,0,0,0,0,0,0,0,0,0,0,0,0,0],"sum_hessian":[6.377766E2,4.0545712E2,2.3231947E2,3.1178845E2,9.366869E1,1.8503476E2,4.7284714E1,3.0198935E2,9.79908E0,1.7736425E1,7.593227E1,4.929721E1,1.3573755E2,1.9144676E1,2.8140038E1,1.596314E1,2.860262E2,8.25879E0,1.5402895E0,6.3108416E0,1.1425584E1,5.055423E0,7.087684E1,2.0602777E1,2.8694431E1,1.191298E2,1.6607756E1,2.2037332E0,1.6940943E1,1.6952906E1,1.1187133E1],"tree_param":{"num_deleted":"0","num_feature":"35","num_nodes":"31","size_leaf_vector":"1"}},{"base_weights":[2.2981558E-3,3.529657E-1,-9.08921E-1,6.443971E-1,-8.7045676E-1,-9.6269864E-1,-5.143439E-1,-4.604773E-1,7.63115E-1,-1.4902268E-1,-9.2651486E-1,-5.21998E-1,-9.893039E-1,8.736264E-1,-8.3184904E-1,-9.669486E-2,-1.0381797E-2,8.851854E-2,1.3987799E-2,-6.135146E-2,7.310583E-2,-2.3480646E-2,-9.6363574E-2,-6.4985685E-2,3.1813618E-2,-1.0672182E-2,-9.9892266E-2,1.5405731E-1,-4.4206887E-2,3.0364508E-2,-9.191591E-2],"categories":[],"categories_nodes":[],"categories_segments":[],"categories_sizes":[],"default_left":[0,0,1,0,0,0,0,0,0,0,0,1,0,0,0,0,0,0,0,0,0,0,0,0,0,0,0,0,0,0,0],"id":20,"left_children":[1,3,5,7,9,11,13,15,17,19,21,23,25,27,29,-1,-1,-1,-1,-1,-1,-1,-1,-1,-1,-1,-1,-1,-1,-1,-1],"loss_changes":[1.9267265E2,1.5580396E2,3.06044E0,4.6551544E1,3.266796E0,1.1991577E0,1.0530024E1,6.185353E0,2.4101364E1,3.4171214E0,1.7746887E0,1.3289859E0,1.0553131E0,4.7431073E0,2.1247177E0,0E0,0E0,0E0,0E0,0E0,0E0,0E0,0E0,0E0,0E0,0E0,0E0,0E0,0E0,0E0,0E0],"parents":[2147483647,0,0,1,1,2,2,3,3,4,4,5,5,6,6,7,7,8,8,9,9,10,10,11,11,12,12,13,13,14,14],"right_children":[2,4,6,8,10,12,14,16,18,20,22,24,26,28,30,-1,-1,-1,-1,-1,-1,-1,-1,-1,-1,-1,-1,-1,-1,-1,-1],"split_conditions":[3.2E-1,4.9566665E-1,9.888618E-1,5.5971366E-1,6.0966665E-1,3.6E-1,1.6533333E-1,3.1125873E-2,1.34E-1,2.7519456E-1,8.634E-3,9.963158E-1,3.94E-4,1.9245932E-1,3.275332E-2,-9.669486E-2,-1.0381797E-2,8.851854E-2,1.3987799E-2,-6.135146E-2,7.310583E-2,-2.3480646E-2,-9.6363574E-2,-6.4985685E-2,3.1813618E-2,-1.0672182E-2,-9.9892266E-2,1.5405731E-1,-4.4206887E-2,3.0364508E-2,-9.191591E-2],"split_indices":[14,12,1,0,12,14,12,13,12,13,11,0,11,13,13,0,0,0,0,0,0,0,0,0,0,0,0,0,0,0,0],"split_type":[0,0,0,0,0,0,0,0,0,0,0,0,0,0,0,0,0,0,0,0,0,0,0,0,0,0,0,0,0,0,0],"sum_hessian":[6.009742E2,4.3441098E2,1.665632E2,3.5122012E2,8.319084E1,1.4531775E2,2.1245451E1,3.3797493E1,3.1742264E2,6.261927E0,7.692891E1,9.447382E0,1.3587038E2,3.6291456E0,1.7616304E1,1.3258598E1,2.0538895E1,2.6508203E2,5.2340614E1,4.2969546E0,1.9649721E0,4.291263E0,7.263765E1,8.396079E0,1.0513029E0,1.5952022E0,1.3427518E2,2.2949038E0,1.3342419E0,1.0809133E0,1.6535393E1],"tree_param":{"num_deleted":"0","num_feature":"35","num_nodes":"31","size_leaf_vector":"1"}},{"base_weights":[-4.103193E-2,3.9348093E-1,-6.8204325E-1,6.3483167E-1,-7.2612244E-1,-8.5496426E-1,-7.338503E-2,7.115172E-1,-5.095009E-1,-3.3769068E-1,-1.0239098E-1,-6.654657E-1,-1.04179144E-1,3.048369E-1,-6.751741E-1,1.7641988E-2,8.6344965E-2,-8.121193E-2,4.479612E-2,-4.010338E-2,6.0662765E-2,-3.516245E-2,-9.618562E-2,-7.25892E-2,4.7454145E-2,1.0297387E-4,-8.256907E-2],"categories":[],"categories_nodes":[],"categories_segments":[],"categories_sizes":[],"default_left":[0,0,0,0,1,0,0,0,0,0,0,0,0,0,0,0,0,0,0,0,0,0,0,0,0,0,0],"id":21,"left_children":[1,3,5,7,9,11,13,15,17,19,-1,21,-1,23,25,-1,-1,-1,-1,-1,-1,-1,-1,-1,-1,-1,-1],"loss_changes":[1.5971509E2,9.282696E1,2.4317467E1,2.5085976E1,6.719921E0,5.6898956E0,1.2119723E1,2.1347855E1,5.6594987E0,1.9181342E0,0E0,8.24538E0,0E0,6.0872803E0,2.0885916E0,0E0,0E0,0E0,0E0,0E0,0E0,0E0,0E0,0E0,0E0,0E0,0E0],"parents":[2147483647,0,0,1,1,2,2,3,3,4,4,5,5,6,6,7,7,8,8,9,9,11,11,13,13,14,14],"right_children":[2,4,6,8,10,12,14,16,18,20,-1,22,-1,24,26,-1,-1,-1,-1,-1,-1,-1,-1,-1,-1,-1,-1],"split_conditions":[1.58E-1,2.0286E-1,1E-1,9.867724E-1,7.502E-1,1.7720084E-1,5.5E-1,7.737568E-1,1E-1,1.5E-1,-1.0239098E-1,5.5E-1,-1.04179144E-1,7.087887E-1,1.758E-3,1.7641988E-2,8.6344965E-2,-8.121193E-2,4.479612E-2,-4.010338E-2,6.0662765E-2,-3.516245E-2,-9.618562E-2,-7.25892E-2,4.7454145E-2,1.0297387E-4,-8.256907E-2],"split_indices":[14,11,2,5,11,13,14,5,2,2,0,14,0,5,11,0,0,0,0,0,0,0,0,0,0,0,0],"split_type":[0,0,0,0,0,0,0,0,0,0,0,0,0,0,0,0,0,0,0,0,0,0,0,0,0,0,0],"sum_hessian":[5.7146277E2,3.4082138E2,2.3064137E2,2.807365E2,6.0084846E1,1.7929784E2,5.1343544E1,2.6345944E2,1.727707E1,2.7000103E1,3.3084743E1,9.127729E1,8.8020546E1,3.183121E1,1.9512333E1,5.8740368E1,2.0471909E2,1.3243188E1,4.033882E0,2.584199E1,1.1581126E0,4.539544E1,4.588185E1,4.036636E0,2.7794573E1,3.7333252E0,1.5779008E1],"tree_param":{"num_deleted":"0","num_feature":"35","num_nodes":"27","size_leaf_vector":"1"}},{"base_weights":[-9.087936E-3,3.4939113E-1,-6.81277E-1,7.5489765E-1,-5.0955915E-1,-7.795773E-1,3.6676696E-1,2.5826933E-2,9.024871E-1,-9.694634E-2,-9.75005E-1,-4.3304473E-1,-9.7504026E-1,5.7882386E-1,-7.824235E-2,3.268864E-2,-9.49149E-2,2.6643386E-2,1.0199802E-1,-1.1908108E-1,6.0312967E-3,-1.0186257E-1,-6.8256394E-3,-9.978264E-2,-7.879422E-3,-7.9685695E-2,-1.0417439E-1,-8.266909E-2,7.494419E-2],"categories":[],"categories_nodes":[],"categories_segments":[],"categories_sizes":[],"default_left":[0,0,0,0,0,0,0,0,0,0,0,0,0,0,0,0,0,0,0,0,0,0,0,0,0,0,0,0,0],"id":22,"left_children":[1,3,5,7,9,11,13,15,17,19,21,23,25,27,-1,-1,-1,-1,-1,-1,-1,-1,-1,-1,-1,-1,-1,-1,-1],"loss_changes":[1.310827E2,1.2396492E2,1.9778038E1,2.5954224E1,2.1872017E1,1.1315926E1,4.5723577E0,1.2542507E1,1.4730377E1,1.0692617E1,2.0520325E0,1.2785375E1,4.7729492E-1,4.1796484E0,0E0,0E0,0E0,0E0,0E0,0E0,0E0,0E0,0E0,0E0,0E0,0E0,0E0,0E0,0E0],"parents":[2147483647,0,0,1,1,2,2,3,3,4,4,5,5,6,6,7,7,8,8,9,9,10,10,11,11,12,12,13,13],"right_children":[2,4,6,8,10,12,14,16,18,20,22,24,26,28,-1,-1,-1,-1,-1,-1,-1,-1,-1,-1,-1,-1,-1,-1,-1],"split_conditions":[2E-1,1.7066666E-1,1.5E-1,6.856801E-1,9.543333E-1,4.6E-1,9.7688574E-1,9.782406E-1,7.248055E-1,8.320184E-1,1E-1,8.0475926E-1,9.4E-1,3.5893258E-1,-7.824235E-2,3.268864E-2,-9.49149E-2,2.6643386E-2,1.0199802E-1,-1.1908108E-1,6.0312967E-3,-1.0186257E-1,-6.8256394E-3,-9.978264E-2,-7.879422E-3,-7.9685695E-2,-1.0417439E-1,-8.266909E-2,7.494419E-2],"split_indices":[14,12,2,0,12,14,5,5,5,0,2,5,14,0,0,0,0,0,0,0,0,0,0,0,0,0,0,0,0],"split_type":[0,0,0,0,0,0,0,0,0,0,0,0,0,0,0,0,0,0,0,0,0,0,0,0,0,0,0,0,0],"sum_hessian":[5.4200116E2,3.5379968E2,1.8820149E2,2.4041975E2,1.1337992E2,1.722972E2,1.5904298E1,4.0673496E1,1.9974626E2,6.0741505E1,5.2638416E1,6.329614E1,1.0900106E2,1.3845708E1,2.05859E0,3.158515E1,9.0883465E0,3.1653965E1,1.680923E2,6.808771E0,5.3932735E1,5.0104664E1,2.5337539E0,2.3697882E1,3.959826E1,3.3216663E1,7.578439E1,1.0825577E0,1.276315E1],"tree_param":{"num_deleted":"0","num_feature":"35","num_nodes":"29","size_leaf_vector":"1"}},{"base_weights":[-2.4139442E-2,3.4415227E-1,-6.642745E-1,7.485213E-1,-5.430685E-1,-8.2800215E-1,-8.150021E-2,-6.2372726E-1,8.0382097E-1,-2.1784456E-1,-9.5390064E-1,-5.7554644E-1,-9.6351856E-1,3.003339E-1,-6.8554235E-1,-1.0550113E-1,6.323802E-2,-3.8374357E-2,8.4915064E-2,-8.324086E-2,1.5082538E-2,-1.0029173E-1,-8.890912E-3,-3.244626E-2,-1.1656274E-1,-1.0302682E-1,-4.8922367E-2,-5.8885586E-2,5.696542E-2,3.167777E-4,-8.701211E-2],"categories":[],"categories_nodes":[],"categories_segments":[],"categories_sizes":[],"default_left":[0,0,0,0,1,0,0,0,0,1,0,0,1,1,0,0,0,0,0,0,0,0,0,0,0,0,0,0,0,0,0],"id":23,"left_children":[1,3,5,7,9,11,13,15,17,19,21,23,25,27,29,-1,-1,-1,-1,-1,-1,-1,-1,-1,-1,-1,-1,-1,-1,-1,-1],"loss_changes":[1.2288986E2,1.1913255E2,1.8095757E1,1.7783669E1,1.3712835E1,4.525856E0,1.0091218E1,5.751547E0,1.2134293E1,1.3594782E1,1.8500977E0,7.6747284E0,2.5081635E0,6.790618E0,2.1516619E0,0E0,0E0,0E0,0E0,0E0,0E0,0E0,0E0,0E0,0E0,0E0,0E0,0E0,0E0,0E0,0E0],"parents":[2147483647,0,0,1,1,2,2,3,3,4,4,5,5,6,6,7,7,8,8,9,9,10,10,11,11,12,12,13,13,14,14],"right_children":[2,4,6,8,10,12,14,16,18,20,22,24,26,28,30,-1,-1,-1,-1,-1,-1,-1,-1,-1,-1,-1,-1,-1,-1,-1,-1],"split_conditions":[1.9E-1,1.81E-1,1E-1,2.6E-2,1E0,4.54E-1,8.2E-1,1E-1,4.842415E-1,1E0,1E-1,1.0933334E-1,9.888618E-1,5.0216067E-1,3.9666668E-2,-1.0550113E-1,6.323802E-2,-3.8374357E-2,8.4915064E-2,-8.324086E-2,1.5082538E-2,-1.0029173E-1,-8.890912E-3,-3.244626E-2,-1.1656274E-1,-1.0302682E-1,-4.8922367E-2,-5.8885586E-2,5.696542E-2,3.167777E-4,-8.701211E-2],"split_indices":[14,12,2,12,12,14,14,2,1,1,2,12,1,1,12,0,0,0,0,0,0,0,0,0,0,0,0,0,0,0,0],"split_type":[0,0,0,0,0,0,0,0,0,0,0,0,0,0,0,0,0,0,0,0,0,0,0,0,0,0,0,0,0,0,0],"sum_hessian":[5.192881E2,3.2993024E2,1.8935783E2,2.2674355E2,1.0318668E2,1.4749814E2,4.185969E1,8.385294E0,2.1835825E2,5.8448105E1,4.473858E1,5.3353E1,9.4145134E1,2.5955313E1,1.590438E1,6.361254E0,2.0240395E0,7.7538548E0,2.106044E2,2.144385E1,3.7004257E1,4.218843E1,2.5501509E0,3.8514606E1,1.4838396E1,8.150268E1,1.2642457E1,5.7580476E0,2.0197266E1,3.5692904E0,1.233509E1],"tree_param":{"num_deleted":"0","num_feature":"35","num_nodes":"31","size_leaf_vector":"1"}},{"base_weights":[-3.6724437E-2,3.0934688E-1,-6.579843E-1,5.853586E-1,-3.987317E-1,-2.5369692E-1,-9.0264636E-1,-2.5364742E-1,7.387316E-1,-7.56122E-2,-9.6309376E-1,5.921533E-2,-1.0735875E0,-9.631151E-1,-1.1274768E-1,5.4775747E-3,-9.946521E-2,-4.51716E-2,8.278234E-2,-2.7560357E-2,7.175563E-2,-4.9918275E-2,-1.0128558E-1,4.6776485E-2,-7.67345E-2,-1.1531615E-1,-4.7750603E-2,-6.5464966E-2,-1.00280344E-1,5.3345066E-2,-2.9602362E-2],"categories":[],"categories_nodes":[],"categories_segments":[],"categories_sizes":[],"default_left":[0,0,0,0,0,0,0,0,0,0,1,0,1,0,1,0,0,0,0,0,0,0,0,0,0,0,0,0,0,0,0],"id":24,"left_children":[1,3,5,7,9,11,13,15,17,19,21,23,25,27,29,-1,-1,-1,-1,-1,-1,-1,-1,-1,-1,-1,-1,-1,-1,-1,-1],"loss_changes":[1.0553403E2,6.1858864E1,1.7139183E1,2.9434723E1,1.616306E1,1.7404087E1,5.0976334E0,8.252693E0,2.0781227E1,9.351016E0,2.4076271E-1,1.719876E1,3.3742332E-1,5.8141327E-1,1.2099948E0,0E0,0E0,0E0,0E0,0E0,0E0,0E0,0E0,0E0,0E0,0E0,0E0,0E0,0E0,0E0,0E0],"parents":[2147483647,0,0,1,1,2,2,3,3,4,4,5,5,6,6,7,7,8,8,9,9,10,10,11,11,12,12,13,13,14,14],"right_children":[2,4,6,8,10,12,14,16,18,20,22,24,26,28,30,-1,-1,-1,-1,-1,-1,-1,-1,-1,-1,-1,-1,-1,-1,-1,-1],"split_conditions":[1.9E-1,3.3512E-2,4.2E-1,6.3645256E-1,5.4884E-1,2.7519456E-1,1.5E-1,9.782406E-1,4.8198912E-1,1E-1,6.91302E-1,9.7956675E-1,9.9999946E-1,1.412E-3,1.444E-3,5.4775747E-3,-9.946521E-2,-4.51716E-2,8.278234E-2,-2.7560357E-2,7.175563E-2,-4.9918275E-2,-1.0128558E-1,4.6776485E-2,-7.67345E-2,-1.1531615E-1,-4.7750603E-2,-6.5464966E-2,-1.00280344E-1,5.3345066E-2,-2.9602362E-2],"split_indices":[14,11,14,0,11,13,2,5,5,2,11,5,0,11,11,0,0,0,0,0,0,0,0,0,0,0,0,0,0,0,0],"split_type":[0,0,0,0,0,0,0,0,0,0,0,0,0,0,0,0,0,0,0,0,0,0,0,0,0,0,0,0,0,0,0],"sum_hessian":[4.889087E2,3.1431973E2,1.7458897E2,2.2628592E2,8.803381E1,6.659017E1,1.07998795E2,3.4871628E1,1.9141429E2,5.6703056E1,3.1330755E1,4.886758E1,1.7722597E1,1.00115425E2,7.8833723E0,2.5276886E1,9.59474E0,1.3044389E1,1.783699E2,4.580596E1,1.0897095E1,4.1038303E0,2.7226925E1,3.2993664E1,1.5873917E1,1.4810849E1,2.9117472E0,1.340716E1,8.670827E1,1.3197006E0,6.563672E0],"tree_param":{"num_deleted":"0","num_feature":"35","num_nodes":"31","size_leaf_vector":"1"}},{"base_weights":[-1.182331E-2,3.5355946E-1,-5.81389E-1,6.4284235E-1,-7.637952E-1,-7.6242304E-1,4.6838988E-3,7.6983094E-1,1.4522901E-1,-3.5358825E-1,-9.779033E-1,-4.5920372E-1,-9.488634E-1,-7.112148E-1,2.290339E-1,-3.756809E-2,8.187055E-2,-4.148513E-2,4.9750805E-2,2.0649632E-2,-8.433298E-2,-1.0386964E-1,-3.7368834E-3,-1.6086547E-2,-1.0802473E-1,-9.842294E-2,-6.624957E-2,-9.40712E-2,-2.6257709E-2,5.5618864E-2,-5.2033592E-2],"categories":[],"categories_nodes":[],"categories_segments":[],"categories_sizes":[],"default_left":[0,0,0,0,1,0,1,0,0,0,0,0,1,1,0,0,0,0,0,0,0,0,0,0,0,0,0,0,0,0,0],"id":25,"left_children":[1,3,5,7,9,11,13,15,17,19,21,23,25,27,29,-1,-1,-1,-1,-1,-1,-1,-1,-1,-1,-1,-1,-1,-1,-1,-1],"loss_changes":[9.806116E1,9.328192E1,1.9540619E1,1.4332283E1,4.8795967E0,7.5177765E0,7.302098E0,1.0489952E1,9.618784E0,6.2004786E0,2.1639671E0,1.01104355E1,2.2079468E-1,8.7008667E-1,8.772027E0,0E0,0E0,0E0,0E0,0E0,0E0,0E0,0E0,0E0,0E0,0E0,0E0,0E0,0E0,0E0,0E0],"parents":[2147483647,0,0,1,1,2,2,3,3,4,4,5,5,6,6,7,7,8,8,9,9,10,10,11,11,12,12,13,13,14,14],"right_children":[2,4,6,8,10,12,14,16,18,20,22,24,26,28,30,-1,-1,-1,-1,-1,-1,-1,-1,-1,-1,-1,-1,-1,-1,-1,-1],"split_conditions":[1.58E-1,4.7866666E-1,1E-1,1.34E-1,1E0,3.78E-1,4.8001066E-1,4.4522077E-1,9.888618E-1,2.0286E-1,1E-1,8.533333E-2,9.888618E-1,3E-3,8.2E-1,-3.756809E-2,8.187055E-2,-4.148513E-2,4.9750805E-2,2.0649632E-2,-8.433298E-2,-1.0386964E-1,-3.7368834E-3,-1.6086547E-2,-1.0802473E-1,-9.842294E-2,-6.624957E-2,-9.40712E-2,-2.6257709E-2,5.5618864E-2,-5.2033592E-2],"split_indices":[14,12,2,12,12,14,0,0,1,11,2,12,1,11,14,0,0,0,0,0,0,0,0,0,0,0,0,0,0,0,0],"split_type":[0,0,0,0,0,0,0,0,0,0,0,0,0,0,0,0,0,0,0,0,0,0,0,0,0,0,0,0,0,0,0],"sum_hessian":[4.6921207E2,2.8607257E2,1.8313951E2,2.2757748E2,5.8495087E1,1.3968945E2,4.345005E1,1.8087259E2,4.670489E1,2.0970133E1,3.7524952E1,5.450601E1,8.518345E1,9.849686E0,3.3600365E1,7.12772E0,1.7374487E2,1.796505E1,2.873984E1,1.0052321E1,1.091781E1,3.5148685E1,2.3762662E0,3.766935E1,1.683666E1,7.365076E1,1.1532695E1,5.790685E0,4.0590005E0,2.3568695E1,1.0031669E1],"tree_param":{"num_deleted":"0","num_feature":"35","num_nodes":"31","size_leaf_vector":"1"}},{"base_weights":[-3.661715E-2,2.0232019E-1,-7.3676E-1,-3.285996E-2,7.670823E-1,-8.3130586E-1,1.06212795E-1,6.0849052E-2,-9.387891E-1,-1.0180263E-2,8.817155E-1,-8.9633965E-1,-3.3533096E-1,3.078853E-1,-7.964953E-2,-3.824048E-2,3.425793E-2,-1.2148438E-1,-2.8564278E-2,3.4543853E-2,-7.593845E-2,-1.4838315E-2,9.079769E-2,-5.2266862E-2,-9.716188E-2,-7.059672E-2,3.1991433E-2,5.040145E-3,9.688348E-2],"categories":[],"categories_nodes":[],"categories_segments":[],"categories_sizes":[],"default_left":[0,0,0,0,1,1,0,0,1,0,0,0,0,0,0,0,0,0,0,0,0,0,0,0,0,0,0,0,0],"id":26,"left_children":[1,3,5,7,9,11,13,15,17,19,21,23,25,27,-1,-1,-1,-1,-1,-1,-1,-1,-1,-1,-1,-1,-1,-1,-1],"loss_changes":[7.4633575E1,4.421996E1,9.134327E0,2.0081371E1,8.72879E0,2.9948807E0,2.4904666E0,2.694255E1,3.6507664E0,3.8769858E0,2.4421997E0,2.0161667E0,3.4901972E0,1.7895049E0,0E0,0E0,0E0,0E0,0E0,0E0,0E0,0E0,0E0,0E0,0E0,0E0,0E0,0E0,0E0],"parents":[2147483647,0,0,1,1,2,2,3,3,4,4,5,5,6,6,7,7,8,8,9,9,10,10,11,11,12,12,13,13],"right_children":[2,4,6,8,10,12,14,16,18,20,22,24,26,28,-1,-1,-1,-1,-1,-1,-1,-1,-1,-1,-1,-1,-1,-1,-1],"split_conditions":[3.2E-1,1E-1,1.5E-1,9.867724E-1,5.431799E-1,9.947249E-1,9.7688574E-1,7.929026E-1,6.300357E-1,9.653217E-1,3.7348986E-1,4.36E-1,8.204375E-1,9.494527E-1,-7.964953E-2,-3.824048E-2,3.425793E-2,-1.2148438E-1,-2.8564278E-2,3.4543853E-2,-7.593845E-2,-1.4838315E-2,9.079769E-2,-5.2266862E-2,-9.716188E-2,-7.059672E-2,3.1991433E-2,5.040145E-3,9.688348E-2],"split_indices":[14,2,2,5,1,1,5,5,1,5,5,14,5,5,0,0,0,0,0,0,0,0,0,0,0,0,0,0,0],"split_type":[0,0,0,0,0,0,0,0,0,0,0,0,0,0,0,0,0,0,0,0,0,0,0,0,0,0,0,0,0],"sum_hessian":[4.4424118E2,3.3173962E2,1.1250156E2,2.348743E2,9.686533E1,1.01168564E2,1.1332988E1,2.1370187E2,2.1172419E1,1.256698E1,8.429835E1,8.872716E1,1.2441411E1,9.802058E0,1.5309299E0,8.2906105E1,1.3079578E2,1.4277848E1,6.89457E0,8.887397E0,3.6795833E0,1.980078E0,8.2318275E1,1.6209497E1,7.2517654E1,7.8970666E0,4.544345E0,7.8285666E0,1.9734918E0],"tree_param":{"num_deleted":"0","num_feature":"35","num_nodes":"29","size_leaf_vector":"1"}},{"base_weights":[-8.282614E-3,1.6955487E-1,-8.4661937E-1,5.4002404E-1,-4.0338385E-1,3.3995267E-2,-8.6925954E-1,7.075971E-1,1.4906939E-2,-1.5567234E-1,-8.373415E-1,-3.9439407E-1,-9.243792E-1,-6.942279E-2,7.792577E-2,3.8331795E-2,-5.7781972E-2,-7.888176E-2,1.4193246E-2,-5.3614706E-2,-9.7757965E-2,-9.14365E-2,1.5187539E-2,-6.8724714E-2,-1.0005243E-1],"categories":[],"categories_nodes":[],"categories_segments":[],"categories_sizes":[],"default_left":[0,0,0,0,0,0,0,0,0,0,0,0,1,0,0,0,0,0,0,0,0,0,0,0,0],"id":27,"left_children":[1,3,5,7,9,-1,11,13,15,17,19,21,23,-1,-1,-1,-1,-1,-1,-1,-1,-1,-1,-1,-1],"loss_changes":[6.536036E1,7.699458E1,2.3565712E0,1.9357384E1,1.5200357E1,0E0,1.6133385E0,1.7300385E1,1.2071748E1,1.7450882E1,1.6552696E0,2.8666146E0,5.215111E-1,0E0,0E0,0E0,0E0,0E0,0E0,0E0,0E0,0E0,0E0,0E0,0E0],"parents":[2147483647,0,0,1,1,2,2,3,3,4,4,6,6,7,7,8,8,9,9,10,10,11,11,12,12],"right_children":[2,4,6,8,10,-1,12,14,16,18,20,22,24,-1,-1,-1,-1,-1,-1,-1,-1,-1,-1,-1,-1],"split_conditions":[6.0966665E-1,1.58E-1,4E-3,1.34E-1,2.0709744E-1,3.3995267E-2,7.87E-1,1.19E-3,4.4E-2,2.3727784E-2,3.6049762E-1,6.986667E-1,2.0476E-2,-6.942279E-2,7.792577E-2,3.8331795E-2,-5.7781972E-2,-7.888176E-2,1.4193246E-2,-5.3614706E-2,-9.7757965E-2,-9.14365E-2,1.5187539E-2,-6.8724714E-2,-1.0005243E-1],"split_indices":[12,14,14,12,13,0,12,11,14,13,13,12,11,0,0,0,0,0,0,0,0,0,0,0,0],"split_type":[0,0,0,0,0,0,0,0,0,0,0,0,0,0,0,0,0,0,0,0,0,0,0,0,0],"sum_hessian":[4.364392E2,3.6071747E2,7.5721725E1,2.1910135E2,1.4161613E2,1.1553305E0,7.45664E1,1.6583371E2,5.3267624E1,9.101928E1,5.059686E1,8.603241E0,6.596316E1,7.642552E0,1.5819116E2,3.3067635E1,2.019999E1,2.8575407E1,6.244387E1,1.7606304E1,3.2990555E1,4.0624914E0,4.540749E0,1.8469778E1,4.749338E1],"tree_param":{"num_deleted":"0","num_feature":"35","num_nodes":"25","size_leaf_vector":"1"}},{"base_weights":[-1.1189379E-2,1.5967591E-1,-8.5592717E-1,5.085029E-1,-3.8902706E-1,-3.9070937E-1,-9.1916865E-1,6.4922994E-1,-2.0977784E-2,-9.842278E-1,-2.0947911E-1,-7.7055685E-2,4.881715E-1,-5.409344E-3,-9.3288764E-2,-4.3441122E-3,7.543212E-2,-1.1456467E-1,2.3238517E-2,-1.0435386E-1,5.800731E-3,1.6479062E-2,-6.424591E-2,1.24297164E-1,-5.855904E-2],"categories":[],"categories_nodes":[],"categories_segments":[],"categories_sizes":[],"default_left":[0,0,0,0,0,0,0,0,0,0,0,0,0,0,0,0,0,0,0,0,0,0,0,0,0],"id":28,"left_children":[1,3,5,7,9,11,13,15,17,19,21,-1,23,-1,-1,-1,-1,-1,-1,-1,-1,-1,-1,-1,-1],"loss_changes":[6.0656532E1,6.7111626E1,1.7209435E0,1.5971104E1,1.4374598E1,3.7813706E0,6.7941666E-1,1.2351082E1,1.3355902E1,1.998415E0,1.729776E1,0E0,3.7187393E0,0E0,0E0,0E0,0E0,0E0,0E0,0E0,0E0,0E0,0E0,0E0,0E0],"parents":[2147483647,0,0,1,1,2,2,3,3,4,4,5,5,6,6,7,7,8,8,9,9,10,10,12,12],"right_children":[2,4,6,8,10,12,14,16,18,20,22,-1,24,-1,-1,-1,-1,-1,-1,-1,-1,-1,-1,-1,-1],"split_conditions":[5.87E-1,1.6E-1,9.4374704E-1,1.6533333E-1,6.3950235E-1,8.4553474E-1,4.8E-3,6.192661E-1,9.9559236E-1,1E0,4.54E-1,-7.7055685E-2,1.36E-1,-5.409344E-3,-9.3288764E-2,-4.3441122E-3,7.543212E-2,-1.1456467E-1,2.3238517E-2,-1.0435386E-1,5.800731E-3,1.6479062E-2,-6.424591E-2,1.24297164E-1,-5.855904E-2],"split_indices":[12,14,0,12,5,0,14,5,0,1,14,0,14,0,0,0,0,0,0,0,0,0,0,0,0],"split_type":[0,0,0,0,0,0,0,0,0,0,0,0,0,0,0,0,0,0,0,0,0,0,0,0,0],"sum_hessian":[4.1829742E2,3.485975E2,6.969992E1,2.1315912E2,1.354384E2,9.200095E0,6.049982E1,1.6822229E2,4.4936817E1,3.0349209E1,1.0508919E2,6.5098333E0,2.6902618E0,1.0216377E0,5.9478184E1,2.2237635E1,1.4598466E2,7.614513E0,3.7322304E1,2.8713924E1,1.6352853E0,5.6698322E1,4.8390865E1,1.4872293E0,1.2030326E0],"tree_param":{"num_deleted":"0","num_feature":"35","num_nodes":"25","size_leaf_vector":"1"}},{"base_weights":[-2.5072431E-2,-2.4584612E-1,5.6739634E-1,1.5866E-2,-6.469626E-1,7.9468715E-1,-3.3446576E-2,3.5778224E-1,-4.8364145E-1,-3.9405587E-1,-8.9257234E-1,-3.934944E-1,8.7821496E-1,-8.176704E-1,1.68629E-1,5.0485093E-2,-8.4957875E-2,-2.9261036E-2,-9.840595E-2,-1.1049391E-1,-1.4010732E-2,-9.87286E-2,-3.0660445E-2,-8.236309E-2,-4.725491E-3,9.284597E-2,-4.003897E-2,-1.05515204E-1,-1.8911017E-3,4.6498887E-2,-6.8146855E-2],"categories":[],"categories_nodes":[],"categories_segments":[],"categories_sizes":[],"default_left":[0,0,0,0,0,1,0,0,1,0,1,1,0,1,0,0,0,0,0,0,0,0,0,0,0,0,0,0,0,0,0],"id":29,"left_children":[1,3,5,7,9,11,13,15,17,19,21,23,25,27,29,-1,-1,-1,-1,-1,-1,-1,-1,-1,-1,-1,-1,-1,-1,-1,-1],"loss_changes":[5.192123E1,3.0359865E1,1.4744751E1,3.0220358E1,6.740429E0,8.110004E0,4.97751E0,1.9076046E1,6.586876E0,1.0323478E1,2.8681145E0,8.2920986E-1,5.0875053E0,1.1993642E0,6.6432853E0,0E0,0E0,0E0,0E0,0E0,0E0,0E0,0E0,0E0,0E0,0E0,0E0,0E0,0E0,0E0,0E0],"parents":[2147483647,0,0,1,1,2,2,3,3,4,4,5,5,6,6,7,7,8,8,9,9,10,10,11,11,12,12,13,13,14,14],"right_children":[2,4,6,8,10,12,14,16,18,20,22,24,26,28,30,-1,-1,-1,-1,-1,-1,-1,-1,-1,-1,-1,-1,-1,-1,-1,-1],"split_conditions":[1E-1,1.58E-1,2.4E-1,2.5508E-2,5E-1,5.149955E-1,7.0404017E-1,9.8371357E-1,7.502E-1,6.3950235E-1,9.888618E-1,3.7754068E-1,2.22138E-1,8.4465444E-1,9.7688574E-1,5.0485093E-2,-8.4957875E-2,-2.9261036E-2,-9.840595E-2,-1.1049391E-1,-1.4010732E-2,-9.87286E-2,-3.0660445E-2,-8.236309E-2,-4.725491E-3,9.284597E-2,-4.003897E-2,-1.05515204E-1,-1.8911017E-3,4.6498887E-2,-6.8146855E-2],"split_indices":[2,14,14,11,14,0,5,5,11,5,1,0,11,1,5,0,0,0,0,0,0,0,0,0,0,0,0,0,0,0,0],"split_type":[0,0,0,0,0,0,0,0,0,0,0,0,0,0,0,0,0,0,0,0,0,0,0,0,0,0,0,0,0,0,0],"sum_hessian":[3.9488028E2,2.88107E2,1.0677326E2,1.7493167E2,1.1317533E2,7.723404E1,2.9539227E1,1.0401585E2,7.0915825E1,5.704252E1,5.6132816E1,4.829109E0,7.240493E1,5.427927E0,2.41113E1,9.324012E1,1.0775726E1,5.247036E1,1.8445463E1,1.4131866E1,4.2910652E1,4.7732613E1,8.400203E0,1.5387348E0,3.2903743E0,6.993075E1,2.4741838E0,3.9365506E0,1.4913763E0,1.8214426E1,5.896872E0],"tree_param":{"num_deleted":"0","num_feature":"35","num_nodes":"31","size_leaf_vector":"1"}},{"base_weights":[-2.861354E-2,-2.4939714E-1,5.6276864E-1,-7.672214E-2,-7.923804E-1,8.2284653E-1,-1.12840705E-1,3.831075E-2,-8.2226E-1,-8.828271E-1,-2.2710557E-1,1.0284915E-1,9.4201195E-1,1.4855785E-2,-7.5102645E-1,2.2670759E-2,-3.9598722E-2,-4.115922E-2,-9.829283E-2,-4.8610616E-2,-9.792467E-2,2.5455711E-2,-8.3779626E-2,-3.2171287E-2,5.283777E-2,1.0014351E-1,-4.0732764E-2,6.941314E-2,-1.923929E-2,-8.743206E-2,-1.44678E-2],"categories":[],"categories_nodes":[],"categories_segments":[],"categories_sizes":[],"default_left":[0,0,0,0,1,1,0,0,0,0,1,1,0,0,0,0,0,0,0,0,0,0,0,0,0,0,0,0,0,0,0],"id":30,"left_children":[1,3,5,7,9,11,13,15,17,19,21,23,25,27,29,-1,-1,-1,-1,-1,-1,-1,-1,-1,-1,-1,-1,-1,-1,-1,-1],"loss_changes":[5.1135326E1,2.6668573E1,1.880259E1,1.8676514E1,3.310833E0,6.5099792E0,2.494769E0,1.5578406E1,1.5158348E0,1.7754288E0,3.3957744E0,2.3483422E0,5.6956406E0,3.846631E0,2.5482917E-1,0E0,0E0,0E0,0E0,0E0,0E0,0E0,0E0,0E0,0E0,0E0,0E0,0E0,0E0,0E0,0E0],"parents":[2147483647,0,0,1,1,2,2,3,3,4,4,5,5,6,6,7,7,8,8,9,9,10,10,11,11,12,12,13,13,14,14],"right_children":[2,4,6,8,10,12,14,16,18,20,22,24,26,28,30,-1,-1,-1,-1,-1,-1,-1,-1,-1,-1,-1,-1,-1,-1,-1,-1],"split_conditions":[1E-1,3.2E-1,2.6E-1,3.515E-1,9.888618E-1,6.3645256E-1,3.4156078E-1,2.3810986E-1,7.502E-1,5E-1,8.76E-1,3.554E-3,2.22138E-1,1.684E-3,9.9999064E-1,2.2670759E-2,-3.9598722E-2,-4.115922E-2,-9.829283E-2,-4.8610616E-2,-9.792467E-2,2.5455711E-2,-8.3779626E-2,-3.2171287E-2,5.283777E-2,1.0014351E-1,-4.0732764E-2,6.941314E-2,-1.923929E-2,-8.743206E-2,-1.44678E-2],"split_indices":[2,14,14,11,1,0,13,13,11,14,14,11,11,11,0,0,0,0,0,0,0,0,0,0,0,0,0,0,0,0,0],"split_type":[0,0,0,0,0,0,0,0,0,0,0,0,0,0,0,0,0,0,0,0,0,0,0,0,0,0,0,0,0,0,0],"sum_hessian":[3.8956412E2,2.8408392E2,1.0548017E2,2.164057E2,6.767823E1,7.600419E1,2.9475979E1,1.8830046E2,2.8105238E1,5.7858784E1,9.819449E0,1.1057551E1,6.494664E1,2.5375284E1,4.1006947E0,1.3166338E2,5.663709E1,8.905231E0,1.9200006E1,1.2493897E1,4.5364887E1,5.8156815E0,4.0037675E0,5.6571846E0,5.4003663E0,6.245408E1,2.4925597E0,5.382945E0,1.999234E1,3.0404992E0,1.0601953E0],"tree_param":{"num_deleted":"0","num_feature":"35","num_nodes":"31","size_leaf_vector":"1"}},{"base_weights":[-5.768799E-3,1.5019551E-1,-8.4149873E-1,-6.1859027E-2,6.4830595E-1,-2.5885487E-1,-9.2476857E-1,-3.288446E-1,1.5197375E-1,8.05584E-2,7.924881E-1,-8.544159E-2,4.618067E-1,-9.5423007E-1,-5.3974907E-3,-1.4380243E-3,-9.92792E-2,-1.812362E-2,4.5121394E-2,6.876113E-2,-3.8451023E-2,-7.049152E-2,8.305781E-2,-5.6173842E-2,9.2634894E-2,-5.6403697E-2,-1.0244572E-1],"categories":[],"categories_nodes":[],"categories_segments":[],"categories_sizes":[],"default_left":[0,0,0,0,0,0,0,0,0,0,0,0,0,0,0,0,0,0,0,0,0,0,0,0,0,0,0],"id":31,"left_children":[1,3,5,7,9,11,13,15,17,19,21,-1,23,25,-1,-1,-1,-1,-1,-1,-1,-1,-1,-1,-1,-1,-1],"loss_changes":[4.907778E1,3.3559647E1,2.6335487E0,1.2809396E1,7.7000427E0,4.168663E0,1.2677155E0,2.0804058E1,1.2524066E1,6.0015435E0,4.893036E0,0E0,2.720856E0,7.834816E-1,0E0,0E0,0E0,0E0,0E0,0E0,0E0,0E0,0E0,0E0,0E0,0E0,0E0],"parents":[2147483647,0,0,1,1,2,2,3,3,4,4,5,5,6,6,7,7,8,8,9,9,10,10,12,12,13,13],"right_children":[2,4,6,8,10,12,14,16,18,20,22,-1,24,26,-1,-1,-1,-1,-1,-1,-1,-1,-1,-1,-1,-1,-1],"split_conditions":[6.0966665E-1,1E-1,1.0966E-2,6.439009E-1,5.431799E-1,8.430255E-1,1.5E-1,9.653217E-1,8.4457445E-1,4.2E-2,2.1441019E-1,-8.544159E-2,5.651669E-1,9.353333E-1,-5.3974907E-3,-1.4380243E-3,-9.92792E-2,-1.812362E-2,4.5121394E-2,6.876113E-2,-3.8451023E-2,-7.049152E-2,8.305781E-2,-5.6173842E-2,9.2634894E-2,-5.6403697E-2,-1.0244572E-1],"split_indices":[12,2,11,1,1,5,2,5,5,12,5,0,1,12,0,0,0,0,0,0,0,0,0,0,0,0,0],"split_type":[0,0,0,0,0,0,0,0,0,0,0,0,0,0,0,0,0,0,0,0,0,0,0,0,0,0,0],"sum_hessian":[3.745553E2,3.1634006E2,5.821524E1,2.2249553E2,9.384451E1,7.7933507E0,5.042189E1,9.871051E1,1.2378502E2,1.9321352E1,7.452316E1,4.165416E0,3.627935E0,4.867912E1,1.7427713E0,6.767796E1,3.1032549E1,5.8754757E1,6.503026E1,8.173711E0,1.114764E1,1.4143758E0,7.310879E1,1.0672308E0,2.5607042E0,8.802526E0,3.9876595E1],"tree_param":{"num_deleted":"0","num_feature":"35","num_nodes":"27","size_leaf_vector":"1"}},{"base_weights":[-1.5123804E-3,1.4903544E-1,-6.9044536E-1,2.4491553E-1,-7.381507E-1,-7.8692585E-1,-1.499998E-1,3.3555013E-1,-6.3481486E-1,1.7928796E-2,-8.0196816E-1,-2.5792512E-1,-8.854303E-1,-5.919992E-1,9.046581E-1,-4.190635E-2,4.8357487E-2,-9.2221096E-2,9.383491E-3,-5.5428784E-2,-9.648254E-2,-6.2164146E-2,1.1509351E-1,-4.727659E-2,-9.5993534E-2,-1.3619602E-2,-8.523256E-2,1.6572998E-1,-5.4553736E-2],"categories":[],"categories_nodes":[],"categories_segments":[],"categories_sizes":[],"default_left":[0,0,1,0,0,0,0,0,0,0,1,0,1,0,0,0,0,0,0,0,0,0,0,0,0,0,0,0,0],"id":32,"left_children":[1,3,5,7,9,11,13,15,17,-1,19,21,23,25,27,-1,-1,-1,-1,-1,-1,-1,-1,-1,-1,-1,-1,-1,-1],"loss_changes":[3.783218E1,2.5645061E1,3.2928143E0,2.181377E1,1.867794E0,2.6516685E0,5.7305713E0,2.7710342E1,5.4578295E0,0E0,5.8307457E-1,5.8843837E0,9.660835E-1,8.874726E-1,4.928108E0,0E0,0E0,0E0,0E0,0E0,0E0,0E0,0E0,0E0,0E0,0E0,0E0,0E0,0E0],"parents":[2147483647,0,0,1,1,2,2,3,3,4,4,5,5,6,6,7,7,8,8,10,10,11,11,12,12,13,13,14,14],"right_children":[2,4,6,8,10,12,14,16,18,-1,20,22,24,26,28,-1,-1,-1,-1,-1,-1,-1,-1,-1,-1,-1,-1,-1,-1],"split_conditions":[4.6E-1,3.515E-1,9.9999994E-1,9.867724E-1,6.8E-3,1.566E-3,9.0627474E-1,6.12199E-1,8.3753496E-1,1.7928796E-2,7.502E-1,9.321377E-1,4.6008512E-1,1E0,1.3321E-1,-4.190635E-2,4.8357487E-2,-9.2221096E-2,9.383491E-3,-5.5428784E-2,-9.648254E-2,-6.2164146E-2,1.1509351E-1,-4.727659E-2,-9.5993534E-2,-1.3619602E-2,-8.523256E-2,1.6572998E-1,-5.4553736E-2],"split_indices":[14,11,0,5,14,11,5,5,0,0,11,0,0,14,11,0,0,0,0,0,0,0,0,0,0,0,0,0,0],"split_type":[0,0,0,0,0,0,0,0,0,0,0,0,0,0,0,0,0,0,0,0,0,0,0,0,0,0,0,0,0],"sum_hessian":[3.6277014E2,2.9835608E2,6.441405E1,2.6991025E2,2.8445831E1,5.426973E1,1.0144317E1,2.4526074E2,2.4649519E1,1.7323397E0,2.6713491E1,9.087154E0,4.5182575E1,7.4575806E0,2.6867359E0,3.9920326E1,2.0534041E2,1.7486715E1,7.162803E0,1.2343891E1,1.4369601E1,7.6666636E0,1.4204903E0,8.033346E0,3.7149227E1,3.2646716E0,4.1929092E0,1.6747438E0,1.0119921E0],"tree_param":{"num_deleted":"0","num_feature":"35","num_nodes":"29","size_leaf_vector":"1"}},{"base_weights":[-1.9704077E-2,-2.0883854E-1,5.1990885E-1,-1.4219749E-1,-9.578506E-2,-2.946407E-1,6.3200825E-1,-6.5832965E-2,-7.6104355E-1,-5.2722186E-1,2.662949E-1,-4.9032074E-1,6.875914E-1,8.820671E-3,-3.9756093E-2,-9.9631384E-2,-8.90823E-3,1.6055686E-2,-7.343686E-2,7.519313E-2,-3.2701902E-2,-7.527292E-2,-2.4256921E-4,4.581252E-2,9.451326E-2],"categories":[],"categories_nodes":[],"categories_segments":[],"categories_sizes":[],"default_left":[0,0,1,0,0,1,0,0,1,1,0,0,0,0,0,0,0,0,0,0,0,0,0,0,0],"id":33,"left_children":[1,3,5,7,-1,9,11,13,15,17,19,21,23,-1,-1,-1,-1,-1,-1,-1,-1,-1,-1,-1,-1],"loss_changes":[3.5898884E1,1.28607025E1,8.522881E0,1.1305094E1,0E0,1.6703211E0,5.3635025E0,1.1020531E1,4.0688763E0,1.3467638E0,1.4277043E0,5.5967987E-1,4.1285553E0,0E0,0E0,0E0,0E0,0E0,0E0,0E0,0E0,0E0,0E0,0E0,0E0],"parents":[2147483647,0,0,1,1,2,2,3,3,5,5,6,6,7,7,8,8,9,9,10,10,11,11,12,12],"right_children":[2,4,6,8,-1,10,12,14,16,18,20,22,24,-1,-1,-1,-1,-1,-1,-1,-1,-1,-1,-1,-1],"split_conditions":[1E-1,7.5678676E-1,4.8001066E-1,9.867724E-1,-9.578506E-2,4.936E-3,3.991387E-1,2.5012E-2,8.320184E-1,3.94E-4,9.7688574E-1,2.1441019E-1,1.5E-1,8.820671E-3,-3.9756093E-2,-9.9631384E-2,-8.90823E-3,1.6055686E-2,-7.343686E-2,7.519313E-2,-3.2701902E-2,-7.527292E-2,-2.4256921E-4,4.581252E-2,9.451326E-2],"split_indices":[2,13,0,5,0,11,5,11,0,11,5,5,2,0,0,0,0,0,0,0,0,0,0,0,0],"split_type":[0,0,0,0,0,0,0,0,0,0,0,0,0,0,0,0,0,0,0,0,0,0,0,0,0],"sum_hessian":[3.4968115E2,2.59381E2,9.0300125E1,2.3928152E2,2.0099493E1,1.072688E1,7.957325E1,2.139828E2,2.5298721E1,7.625299E0,3.101581E0,3.385812E0,7.618743E1,1.4662895E2,6.735385E1,1.8380545E1,6.918177E0,1.8170742E0,5.8082247E0,1.5585462E0,1.543035E0,1.8487009E0,1.5371112E0,4.1759266E1,3.442817E1],"tree_param":{"num_deleted":"0","num_feature":"35","num_nodes":"25","size_leaf_vector":"1"}},{"base_weights":[-3.7506025E-2,2.2829089E-1,-4.1761923E-1,3.554389E-1,-7.432169E-1,-8.025584E-1,-2.002271E-1,1.9244966E-1,7.767095E-1,1.4069584E-2,-8.2399607E-1,-9.529648E-1,-5.2568144E-1,8.143216E-2,-8.467045E-1,-2.3397554E-2,3.18347E-2,8.440076E-2,-2.9336689E-2,-9.071487E-2,-3.9552044E-2,-1.0041267E-1,-2.1254357E-2,2.5230581E-2,-7.230957E-2,4.6174146E-2,-4.0486675E-2,-9.8153725E-2,-9.947165E-3],"categories":[],"categories_nodes":[],"categories_segments":[],"categories_sizes":[],"default_left":[0,0,0,0,0,0,0,0,0,0,0,1,0,0,1,0,0,0,0,0,0,0,0,0,0,0,0,0,0],"id":34,"left_children":[1,3,5,7,9,11,13,15,17,-1,19,21,23,25,27,-1,-1,-1,-1,-1,-1,-1,-1,-1,-1,-1,-1,-1,-1],"loss_changes":[3.4598087E1,2.5168938E1,1.1628809E1,1.213838E1,1.8050661E0,1.6026878E0,1.6705893E1,7.073258E0,3.819109E0,0E0,4.1868496E-1,9.799595E-1,3.2559733E0,1.2125698E1,2.7047749E0,0E0,0E0,0E0,0E0,0E0,0E0,0E0,0E0,0E0,0E0,0E0,0E0,0E0,0E0],"parents":[2147483647,0,0,1,1,2,2,3,3,4,4,5,5,6,6,7,7,8,8,10,10,11,11,12,12,13,13,14,14],"right_children":[2,4,6,8,10,12,14,16,18,-1,20,22,24,26,28,-1,-1,-1,-1,-1,-1,-1,-1,-1,-1,-1,-1,-1,-1],"split_conditions":[1.42E-1,3.515E-1,8.0475926E-1,1E-1,6.8E-3,6.3950235E-1,9.762722E-1,6.152245E-1,9.892E-2,1.4069584E-2,9.449814E-1,8.3692E-2,1.412E-3,4.42E-1,6.4277864E-1,-2.3397554E-2,3.18347E-2,8.440076E-2,-2.9336689E-2,-9.071487E-2,-3.9552044E-2,-1.0041267E-1,-2.1254357E-2,2.5230581E-2,-7.230957E-2,4.6174146E-2,-4.0486675E-2,-9.8153725E-2,-9.947165E-3],"split_indices":[14,11,5,2,14,5,5,1,11,0,5,11,11,14,1,0,0,0,0,0,0,0,0,0,0,0,0,0,0],"split_type":[0,0,0,0,0,0,0,0,0,0,0,0,0,0,0,0,0,0,0,0,0,0,0,0,0,0,0,0,0],"sum_hessian":[3.4050006E2,2.0061676E2,1.3988332E2,1.7796002E2,2.2656736E1,4.951488E1,9.036843E1,1.2936546E2,4.859456E1,1.8350682E0,2.0821667E1,3.0503048E1,1.9011833E1,6.3553352E1,2.681508E1,2.92921E1,1.00073364E2,4.5918E1,2.67656E0,1.6502026E1,4.3196406E0,2.8198427E1,2.3046193E0,3.7915819E0,1.5220251E1,3.569143E1,2.7861923E1,2.245049E1,4.3645897E0],"tree_param":{"num_deleted":"0","num_feature":"35","num_nodes":"29","size_leaf_vector":"1"}},{"base_weights":[-2.9335408E-2,1.2377856E-1,-6.405341E-1,-2.362094E-2,5.73355E-1,-7.756676E-1,2.1628094E-1,4.585722E-2,-7.711217E-1,-1.470029E-1,7.573111E-1,-3.3202314E-1,-8.787537E-1,4.0068784E-1,-6.4905874E-2,-2.381791E-2,2.4127206E-2,-1.0245692E-1,-1.0371604E-2,2.7439117E-3,-7.781296E-2,-8.092676E-3,8.468657E-2,-8.3810486E-2,2.7067497E-4,-9.707511E-2,-3.0503094E-2,-6.8691437E-4,1.20863415E-1],"categories":[],"categories_nodes":[],"categories_segments":[],"categories_sizes":[],"default_left":[0,0,0,0,1,0,0,0,1,0,0,0,1,0,0,0,0,0,0,0,0,0,0,0,0,0,0,0,0],"id":35,"left_children":[1,3,5,7,9,11,13,15,17,19,21,23,25,27,-1,-1,-1,-1,-1,-1,-1,-1,-1,-1,-1,-1,-1,-1,-1],"loss_changes":[3.1524803E1,1.7875328E1,7.980421E0,1.062746E1,8.935722E0,2.3837242E0,1.8517044E0,1.04673395E1,2.8370762E0,1.6049182E0,4.062788E0,2.1431193E0,2.177414E0,2.9192996E0,0E0,0E0,0E0,0E0,0E0,0E0,0E0,0E0,0E0,0E0,0E0,0E0,0E0,0E0,0E0],"parents":[2147483647,0,0,1,1,2,2,3,3,4,4,5,5,6,6,7,7,8,8,9,9,10,10,11,11,12,12,13,13],"right_children":[2,4,6,8,10,12,14,16,18,20,22,24,26,28,-1,-1,-1,-1,-1,-1,-1,-1,-1,-1,-1,-1,-1,-1,-1],"split_conditions":[3.78E-1,1E-1,1.5E-1,9.8744404E-1,6.3645256E-1,5.5E-1,9.7688574E-1,7.993142E-1,8.3753496E-1,9.867724E-1,6.7682177E-1,7.3954105E-1,9.888618E-1,9.468499E-1,-6.4905874E-2,-2.381791E-2,2.4127206E-2,-1.0245692E-1,-1.0371604E-2,2.7439117E-3,-7.781296E-2,-8.092676E-3,8.468657E-2,-8.3810486E-2,2.7067497E-4,-9.707511E-2,-3.0503094E-2,-6.8691437E-4,1.20863415E-1],"split_indices":[14,2,2,5,0,14,5,5,0,5,5,5,1,5,0,0,0,0,0,0,0,0,0,0,0,0,0,0,0],"split_type":[0,0,0,0,0,0,0,0,0,0,0,0,0,0,0,0,0,0,0,0,0,0,0,0,0,0,0,0,0],"sum_hessian":[3.350172E2,2.685413E2,6.647593E1,2.0294922E2,6.559208E1,5.7501698E1,8.974234E0,1.8654868E2,1.640054E1,1.338364E1,5.220844E1,1.16377945E1,4.5863903E1,7.84038E0,1.1338536E0,7.594437E1,1.106043E2,1.1498738E1,4.901802E0,1.1234871E1,2.1487696E0,5.0486875E0,4.715975E1,4.0343676E0,7.6034274E0,3.8929478E1,6.934425E0,5.8705587E0,1.9698216E0],"tree_param":{"num_deleted":"0","num_feature":"35","num_nodes":"29","size_leaf_vector":"1"}},{"base_weights":[-2.8658979E-2,1.14586234E-1,-7.36218E-1,3.831535E-1,-4.0103272E-1,-8.3354753E-1,-2.6394254E-1,-7.101513E-1,4.8475325E-1,-1.8610373E-1,-8.5145974E-1,2.1283387E-3,-8.5604095E-1,6.150277E-1,-7.6032513E-1,-6.354087E-3,-8.911627E-2,-1.6207933E-2,7.027503E-2,4.9272873E-3,-7.831443E-2,-1.0439893E-2,-8.7720685E-2,-5.7844102E-2,-9.65607E-2,-7.953661E-3,1.4880961E-1,-8.533218E-2,-2.7751548E-2],"categories":[],"categories_nodes":[],"categories_segments":[],"categories_sizes":[],"default_left":[0,0,0,0,0,0,0,0,0,0,0,0,0,0,0,0,0,0,0,0,0,0,0,0,0,0,0,0,0],"id":36,"left_children":[1,3,5,7,9,11,13,15,17,19,21,-1,23,25,27,-1,-1,-1,-1,-1,-1,-1,-1,-1,-1,-1,-1,-1,-1],"loss_changes":[3.2671455E1,3.730043E1,2.2744312E0,1.999324E1,8.782745E0,8.744602E-1,5.1518073E0,1.7512689E0,2.3019863E1,9.004888E0,4.768963E-1,0E0,7.618828E-1,2.803259E0,9.133577E-2,0E0,0E0,0E0,0E0,0E0,0E0,0E0,0E0,0E0,0E0,0E0,0E0,0E0,0E0],"parents":[2147483647,0,0,1,1,2,2,3,3,4,4,5,5,6,6,7,7,8,8,9,9,10,10,12,12,13,13,14,14],"right_children":[2,4,6,8,10,12,14,16,18,20,22,-1,24,26,28,-1,-1,-1,-1,-1,-1,-1,-1,-1,-1,-1,-1,-1,-1],"split_conditions":[4.42E-1,1.34E-1,9.888618E-1,4.74695E-1,1E0,1.8E-2,3.6733332E-1,2.8666666E-2,7.3503494E-1,7.2E-2,4.8E-3,2.1283387E-3,1E0,9.0347445E-1,2.00001E0,-6.354087E-3,-8.911627E-2,-1.6207933E-2,7.027503E-2,4.9272873E-3,-7.831443E-2,-1.0439893E-2,-8.7720685E-2,-5.7844102E-2,-9.65607E-2,-7.953661E-3,1.4880961E-1,-8.533218E-2,-2.7751548E-2],"split_indices":[14,12,1,1,12,12,12,12,5,14,14,0,14,5,1,0,0,0,0,0,0,0,0,0,0,0,0,0,0],"split_type":[0,0,0,0,0,0,0,0,0,0,0,0,0,0,0,0,0,0,0,0,0,0,0,0,0,0,0,0,0],"sum_hessian":[3.2051624E2,2.6724963E2,5.3266594E1,1.7589119E2,9.1358444E1,4.353057E1,9.736023E0,1.4446303E1,1.6144489E2,6.2803734E1,2.855471E1,1.117446E0,4.2413124E1,3.427591E0,6.3084316E0,3.4550762E0,1.0991227E1,4.075997E1,1.2068491E2,4.570322E1,1.7100513E1,1.119744E0,2.7434965E1,1.3779736E1,2.863339E1,2.4151404E0,1.0124506E0,4.6461115E0,1.6623204E0],"tree_param":{"num_deleted":"0","num_feature":"35","num_nodes":"29","size_leaf_vector":"1"}},{"base_weights":[-8.515123E-4,1.1065399E-1,-6.3144433E-1,2.6705587E-1,-2.7911493E-1,-7.388021E-1,-3.4819655E-2,-6.043226E-1,4.0884045E-1,-3.6359975E-1,8.8850856E-2,-8.549116E-1,-1.3580607E-1,1.5613331E-1,-6.4162284E-2,-3.3577453E-2,-9.471711E-2,-4.901719E-3,6.377891E-2,-2.4071164E-2,-9.374594E-2,-3.2556187E-2,-9.304359E-2,6.258601E-2,-8.16138E-2,-2.4668647E-2,8.533302E-2],"categories":[],"categories_nodes":[],"categories_segments":[],"categories_sizes":[],"default_left":[0,0,0,0,0,1,0,0,0,1,0,0,1,0,0,0,0,0,0,0,0,0,0,0,0,0,0],"id":37,"left_children":[1,3,5,7,9,11,13,15,17,19,-1,21,23,25,-1,-1,-1,-1,-1,-1,-1,-1,-1,-1,-1,-1,-1],"loss_changes":[2.181144E1,1.6143452E1,2.9597034E0,2.3551056E1,7.8174534E0,2.6460667E0,1.0453835E0,2.1494637E0,1.7099325E1,4.820487E0,0E0,1.0121021E0,4.427703E0,2.1789753E0,0E0,0E0,0E0,0E0,0E0,0E0,0E0,0E0,0E0,0E0,0E0,0E0,0E0],"parents":[2147483647,0,0,1,1,2,2,3,3,4,4,5,5,6,6,7,7,8,8,9,9,11,11,12,12,13,13],"right_children":[2,4,6,8,10,12,14,16,18,20,-1,22,24,26,-1,-1,-1,-1,-1,-1,-1,-1,-1,-1,-1,-1,-1],"split_conditions":[5.5E-1,2.5508E-2,1.5E-1,5.149955E-1,1.5E-1,9.888618E-1,9.7688574E-1,9.5664227E-1,7.993142E-1,7.502E-1,8.8850856E-2,1.412E-3,8.76E-1,9.494527E-1,-6.4162284E-2,-3.3577453E-2,-9.471711E-2,-4.901719E-3,6.377891E-2,-2.4071164E-2,-9.374594E-2,-3.2556187E-2,-9.304359E-2,6.258601E-2,-8.16138E-2,-2.4668647E-2,8.533302E-2],"split_indices":[14,11,2,0,2,1,5,5,5,11,0,11,14,5,0,0,0,0,0,0,0,0,0,0,0,0,0],"split_type":[0,0,0,0,0,0,0,0,0,0,0,0,0,0,0,0,0,0,0,0,0,0,0,0,0,0,0],"sum_hessian":[3.0820435E2,2.625951E2,4.560924E1,1.8762286E2,7.497225E1,3.8451843E1,7.1573977E0,2.5799885E1,1.6182297E2,7.05557E1,4.416544E0,3.1892942E1,6.558901E0,6.0091066E0,1.1482913E0,1.5577571E1,1.0222313E1,5.420609E1,1.0761688E2,5.928063E1,1.1275078E1,4.6452236E0,2.7247719E1,3.132252E0,3.4266489E0,4.218155E0,1.7909515E0],"tree_param":{"num_deleted":"0","num_feature":"35","num_nodes":"27","size_leaf_vector":"1"}},{"base_weights":[-1.0107592E-2,2.1854469E-1,-4.589504E-1,5.6236976E-1,-2.2665527E-1,-5.30137E-1,6.9947463E-1,-8.403302E-2,6.1050284E-1,-8.759339E-1,-6.591693E-2,-3.0705327E-1,-8.7778825E-1,1.0463254E-2,8.8361174E-2,6.504057E-2,-8.055005E-2,-3.1590362E-3,-9.435347E-2,1.3280327E-2,-6.348344E-2,8.559635E-3,-7.1458824E-2,-7.232234E-3,-8.990531E-2],"categories":[],"categories_nodes":[],"categories_segments":[],"categories_sizes":[],"default_left":[0,0,0,0,0,0,0,0,0,0,0,1,0,0,0,0,0,0,0,0,0,0,0,0,0],"id":38,"left_children":[1,3,5,7,9,11,13,-1,15,17,19,21,23,-1,-1,-1,-1,-1,-1,-1,-1,-1,-1,-1,-1],"loss_changes":[3.1217934E1,3.0979202E1,8.836054E0,8.210632E0,9.182739E0,7.274994E0,6.057174E-1,0E0,6.7848206E0,9.6840763E-1,8.230219E0,9.789263E0,5.770359E-1,0E0,0E0,0E0,0E0,0E0,0E0,0E0,0E0,0E0,0E0,0E0,0E0],"parents":[2147483647,0,0,1,1,2,2,3,3,4,4,5,5,6,6,8,8,9,9,10,10,11,11,12,12],"right_children":[2,4,6,8,10,12,14,-1,16,18,20,22,24,-1,-1,-1,-1,-1,-1,-1,-1,-1,-1,-1,-1],"split_conditions":[1.34E-1,1.56E-1,1.5E-1,6.1132252E-2,6.3950235E-1,7.87E-1,9.3065554E-1,-8.403302E-2,9.915748E-1,1.72E-1,9.63E-1,4.4E-2,4.8E-3,1.0463254E-2,8.8361174E-2,6.504057E-2,-8.055005E-2,-3.1590362E-3,-9.435347E-2,1.3280327E-2,-6.348344E-2,8.559635E-3,-7.1458824E-2,-7.232234E-3,-8.990531E-2],"split_indices":[12,14,2,5,5,12,5,0,5,14,14,14,14,0,0,0,0,0,0,0,0,0,0,0,0],"split_type":[0,0,0,0,0,0,0,0,0,0,0,0,0,0,0,0,0,0,0,0,0,0,0,0,0],"sum_hessian":[3.0220526E2,2.0055194E2,1.0165333E2,1.13011055E2,8.754089E1,9.627922E1,5.3741083E0,3.2032447E0,1.0980781E2,1.6488522E1,7.105237E1,5.9793594E1,3.6485622E1,1.6410483E0,3.7330601E0,1.07324104E2,2.4837074E0,1.3310333E0,1.5157488E1,5.3226997E1,1.7825373E1,3.0855278E1,2.8938316E1,1.051668E0,3.5433952E1],"tree_param":{"num_deleted":"0","num_feature":"35","num_nodes":"25","size_leaf_vector":"1"}},{"base_weights":[-4.6973787E-2,1.6561714E-1,-3.32446E-1,3.89811E-1,-2.1988934E-1,-8.995261E-2,-1.7519899E-1,-2.7736443E-1,5.883849E-1,-2.985681E-1,8.830447E-2,-5.8022514E-2,-8.440601E-1,-6.886109E-2,4.627123E-2,-7.677229E-2,6.3917585E-2,-1.7235937E-2,-9.199228E-2,6.1212345E-3,-6.769737E-2,-8.994788E-2,-2.5753606E-2],"categories":[],"categories_nodes":[],"categories_segments":[],"categories_sizes":[],"default_left":[0,1,0,1,0,0,0,0,0,0,0,1,1,0,0,0,0,0,0,0,0,0,0],"id":39,"left_children":[1,3,5,7,9,-1,11,13,15,17,-1,19,21,-1,-1,-1,-1,-1,-1,-1,-1,-1,-1],"loss_changes":[1.7907969E1,1.4715944E1,1.106869E1,1.4390881E1,5.7205772E0,0E0,7.773302E0,8.022361E0,6.213108E0,4.503085E0,0E0,6.3883986E0,2.4956226E-1,0E0,0E0,0E0,0E0,0E0,0E0,0E0,0E0,0E0,0E0],"parents":[2147483647,0,0,1,1,2,2,3,3,4,4,6,6,7,7,8,8,9,9,11,11,12,12],"right_children":[2,4,6,8,10,-1,12,14,16,18,-1,20,22,-1,-1,-1,-1,-1,-1,-1,-1,-1,-1],"split_conditions":[1.28E-1,2.5508E-2,6.3950235E-1,5.746096E-1,1.5E-1,-8.995261E-2,9.8744404E-1,6.584E-3,6.1132252E-2,7.502E-1,8.830447E-2,1E0,6.10054E-1,-6.886109E-2,4.627123E-2,-7.677229E-2,6.3917585E-2,-1.7235937E-2,-9.199228E-2,6.1212345E-3,-6.769737E-2,-8.994788E-2,-2.5753606E-2],"split_indices":[14,11,5,1,2,0,5,11,5,11,0,14,1,0,0,0,0,0,0,0,0,0,0],"split_type":[0,0,0,0,0,0,0,0,0,0,0,0,0,0,0,0,0,0,0,0,0,0,0],"sum_hessian":[2.931714E2,1.6827612E2,1.2489524E2,1.0639199E2,6.188414E1,2.6089216E1,9.880603E1,2.4311752E1,8.208024E1,5.8444263E1,3.439876E0,8.5001526E1,1.38045025E1,1.5672426E1,8.639326E0,2.4536228E0,7.962662E1,4.963904E1,8.8052225E0,7.202728E1,1.2974245E1,1.2125254E1,1.6792494E0],"tree_param":{"num_deleted":"0","num_feature":"35","num_nodes":"23","size_leaf_vector":"1"}},{"base_weights":[-4.0201854E-2,6.1827563E-2,-5.651804E-1,-7.006843E-2,4.8249128E-1,-6.7639744E-1,1.5447927E-2,-6.5266716E-1,-2.2988053E-4,-1.9039148E-1,6.6493875E-1,-8.1695384E-1,-3.673726E-2,7.484858E-1,-5.104166E-1,3.6800273E-3,-8.3917856E-2,4.8867944E-3,-9.2094086E-2,4.1749747E-3,-6.2697776E-2,7.5521715E-2,6.2046214E-3,-2.7060735E-3,-8.424825E-2,2.8562212E-2,-5.235532E-2,2.61172E-3,1.3925642E-1,-6.688532E-2,-1.0427227E-3],"categories":[],"categories_nodes":[],"categories_segments":[],"categories_sizes":[],"default_left":[0,0,1,0,1,0,0,0,0,0,0,0,0,0,0,0,0,0,0,0,0,0,0,0,0,0,0,0,0,0,0],"id":40,"left_children":[1,3,5,7,9,11,13,15,17,19,21,23,25,27,29,-1,-1,-1,-1,-1,-1,-1,-1,-1,-1,-1,-1,-1,-1,-1,-1],"loss_changes":[1.5210355E1,1.32454195E1,2.9939308E0,7.4111876E0,7.1199703E0,3.4581184E0,3.6218786E0,2.538145E0,7.4429493E0,1.3364697E0,2.4044094E0,6.1764336E-1,1.4106721E0,1.785706E0,4.278046E-1,0E0,0E0,0E0,0E0,0E0,0E0,0E0,0E0,0E0,0E0,0E0,0E0,0E0,0E0,0E0,0E0],"parents":[2147483647,0,0,1,1,2,2,3,3,4,4,5,5,6,6,7,7,8,8,9,9,10,10,11,11,12,12,13,13,14,14],"right_children":[2,4,6,8,10,12,14,16,18,20,22,24,26,28,30,-1,-1,-1,-1,-1,-1,-1,-1,-1,-1,-1,-1,-1,-1,-1,-1],"split_conditions":[4.54E-1,1E-1,9.888618E-1,5.29964E-1,5.9868765E-1,1.5E-1,8.76E-1,6.4E-2,8.233619E-1,9.5664227E-1,2.4E-1,3.2300416E-1,9.3666637E-1,6.78E-1,8.7075454E-1,3.6800273E-3,-8.3917856E-2,4.8867944E-3,-9.2094086E-2,4.1749747E-3,-6.2697776E-2,7.5521715E-2,6.2046214E-3,-2.7060735E-3,-8.424825E-2,2.8562212E-2,-5.235532E-2,2.61172E-3,1.3925642E-1,-6.688532E-2,-1.0427227E-3],"split_indices":[14,2,1,0,0,2,14,14,13,5,14,0,5,14,5,0,0,0,0,0,0,0,0,0,0,0,0,0,0,0,0],"split_type":[0,0,0,0,0,0,0,0,0,0,0,0,0,0,0,0,0,0,0,0,0,0,0,0,0,0,0,0,0,0,0],"sum_hessian":[2.823176E2,2.3711633E2,4.5201256E1,1.8115115E2,5.5965168E1,3.779654E1,7.404717E0,1.8497572E1,1.626536E2,1.1928444E1,4.4036724E1,3.0760239E1,7.036299E0,2.9162364E0,4.4884806E0,4.1093683E0,1.4388204E1,1.5531802E2,7.3355627E0,8.378048E0,3.5503955E0,3.8081642E1,5.9550834E0,1.0275156E0,2.9732723E1,4.4818177E0,2.5544815E0,1.8650415E0,1.0511949E0,3.1519547E0,1.336526E0],"tree_param":{"num_deleted":"0","num_feature":"35","num_nodes":"31","size_leaf_vector":"1"}},{"base_weights":[-3.568205E-2,1.5432405E-1,-3.6799097E-1,2.2282068E-1,-7.7114695E-1,-4.5273575E-1,2.1604294E-1,-2.4794564E-1,3.6862475E-1,-8.888666E-2,2.7222628E-2,-3.1731555E-1,-8.241618E-1,-3.3511072E-1,5.723725E-1,-1.5244484E-2,-1.1688148E-1,5.7822745E-2,4.050496E-3,-8.881858E-2,-2.2929948E-2,-9.750866E-2,-2.433773E-2,2.4112292E-2,-7.64062E-2,7.797817E-2,9.008872E-3],"categories":[],"categories_nodes":[],"categories_segments":[],"categories_sizes":[],"default_left":[0,1,0,0,0,0,0,0,0,0,0,1,1,1,1,0,0,0,0,0,0,0,0,0,0,0,0],"id":41,"left_children":[1,3,5,7,9,11,13,15,17,-1,-1,19,21,23,25,-1,-1,-1,-1,-1,-1,-1,-1,-1,-1,-1,-1],"loss_changes":[1.7964224E1,1.1654891E1,5.2187777E0,1.1721525E1,1.8027501E0,4.2995033E0,2.899631E0,3.3981173E0,8.901606E0,0E0,0E0,3.2169313E0,1.8314896E0,1.678316E0,8.0433536E-1,0E0,0E0,0E0,0E0,0E0,0E0,0E0,0E0,0E0,0E0,0E0,0E0],"parents":[2147483647,0,0,1,1,2,2,3,3,4,4,5,5,6,6,7,7,8,8,11,11,12,12,13,13,14,14],"right_children":[2,4,6,8,10,12,14,16,18,-1,-1,20,22,24,26,-1,-1,-1,-1,-1,-1,-1,-1,-1,-1,-1,-1],"split_conditions":[1.58E-1,4.68336E-1,1.5E-1,8.0218387E-1,6.8E-2,9.4E-1,6.3645256E-1,7.790261E-1,2.5508E-2,-8.888666E-2,2.7222628E-2,1.08E-3,9.9983674E-1,1.64E-1,7.522E-3,-1.5244484E-2,-1.1688148E-1,5.7822745E-2,4.050496E-3,-8.881858E-2,-2.2929948E-2,-9.750866E-2,-2.433773E-2,2.4112292E-2,-7.64062E-2,7.797817E-2,9.008872E-3],"split_indices":[14,11,2,0,14,14,0,0,11,0,0,11,0,14,11,0,0,0,0,0,0,0,0,0,0,0,0],"split_type":[0,0,0,0,0,0,0,0,0,0,0,0,0,0,0,0,0,0,0,0,0,0,0,0,0,0,0],"sum_hessian":[2.8261148E2,1.8014473E2,1.0246675E2,1.6843745E2,1.1707279E1,8.9678925E1,1.2787825E1,3.9665745E1,1.2877171E2,1.0653385E1,1.0538948E0,6.707721E1,2.2601717E1,5.0446095E0,7.7432146E0,3.6994675E1,2.671071E0,7.811173E1,5.0659977E1,7.7459555E0,5.9331257E1,1.7400934E1,5.2007823E0,2.3395894E0,2.7050202E0,4.9832735E0,2.7599409E0],"tree_param":{"num_deleted":"0","num_feature":"35","num_nodes":"27","size_leaf_vector":"1"}},{"base_weights":[-2.036358E-2,1.9592655E-1,-4.2772657E-1,6.037333E-1,-2.6226131E-2,-4.927655E-1,6.774187E-1,-1.11364916E-1,6.6037107E-1,-6.753733E-1,1.1799307E-1,-8.5324395E-1,-2.5092834E-1,1.0739515E-2,8.33066E-2,3.6808264E-2,8.797464E-2,-5.6318385E-3,-8.6504884E-2,2.7861489E-2,-5.374513E-2,-9.8805E-2,-1.6577726E-2,8.874841E-3,-8.830913E-2],"categories":[],"categories_nodes":[],"categories_segments":[],"categories_sizes":[],"default_left":[0,0,0,0,0,1,0,0,0,0,0,0,0,0,0,0,0,0,0,0,0,0,0,0,0],"id":42,"left_children":[1,3,5,7,9,11,13,-1,15,17,19,21,23,-1,-1,-1,-1,-1,-1,-1,-1,-1,-1,-1,-1],"loss_changes":[2.4199615E1,1.6274723E1,7.179308E0,6.8954487E0,1.1046008E1,7.6775093E0,4.1753483E-1,0E0,3.647562E0,2.4689999E0,1.0329668E1,3.1659927E0,1.2016148E1,0E0,0E0,0E0,0E0,0E0,0E0,0E0,0E0,0E0,0E0,0E0,0E0],"parents":[2147483647,0,0,1,1,2,2,3,3,4,4,5,5,6,6,8,8,9,9,10,10,11,11,12,12],"right_children":[2,4,6,8,10,12,14,-1,16,18,20,22,24,-1,-1,-1,-1,-1,-1,-1,-1,-1,-1,-1,-1],"split_conditions":[1.34E-1,7.98E-2,1.5E-1,8.94E-4,6.3950235E-1,4.3718E-2,9.3065554E-1,-1.11364916E-1,9.6770453E-1,1.34E-1,9.762722E-1,1E-1,7.5333333E-1,1.0739515E-2,8.33066E-2,3.6808264E-2,8.797464E-2,-5.6318385E-3,-8.6504884E-2,2.7861489E-2,-5.374513E-2,-9.8805E-2,-1.6577726E-2,8.874841E-3,-8.830913E-2],"split_indices":[12,14,2,11,5,11,5,0,0,14,5,2,12,0,0,0,0,0,0,0,0,0,0,0,0],"split_type":[0,0,0,0,0,0,0,0,0,0,0,0,0,0,0,0,0,0,0,0,0,0,0,0,0],"sum_hessian":[2.7270557E2,1.7846715E2,9.423843E1,6.2330006E1,1.1613714E2,8.9523964E1,4.7144604E0,1.3941334E0,6.0935875E1,2.044207E1,9.569507E1,3.4929886E1,5.459408E1,1.3736744E0,3.3407862E0,2.7274326E1,3.366155E1,5.0985513E0,1.5343518E1,7.73217E1,1.8373371E1,2.8837816E1,6.0920687E0,3.6071556E1,1.8522526E1],"tree_param":{"num_deleted":"0","num_feature":"35","num_nodes":"25","size_leaf_vector":"1"}},{"base_weights":[-1.3376231E-2,2.0459451E-1,-3.8145337E-1,3.4278017E-1,-4.0275508E-1,-2.1761131E-1,-9.352113E-1,-3.609376E-1,4.8803824E-1,-5.4340744E-1,9.4869405E-1,-5.1948052E-2,-7.7659506E-1,-8.70765E-3,-9.755958E-1,-6.4057186E-2,1.8331751E-2,5.492257E-3,6.806824E-2,-7.2721034E-2,1.9340381E-2,2.3259088E-2,1.1532022E-1,-4.350947E-2,2.1025185E-2,-8.587595E-2,-6.8279128E-3,-1.06626965E-1,-3.778158E-2],"categories":[],"categories_nodes":[],"categories_segments":[],"categories_sizes":[],"default_left":[0,0,1,0,0,1,0,0,0,0,0,0,0,0,0,0,0,0,0,0,0,0,0,0,0,0,0,0,0],"id":43,"left_children":[1,3,5,7,9,11,13,15,17,19,21,23,25,-1,27,-1,-1,-1,-1,-1,-1,-1,-1,-1,-1,-1,-1,-1,-1],"loss_changes":[2.1640198E1,1.4359184E1,8.89729E0,1.4341852E1,6.572915E0,7.248331E0,6.8909645E-1,3.813502E0,9.582422E0,4.135602E0,2.250309E-1,6.298629E0,9.844017E-1,0E0,7.610893E-1,0E0,0E0,0E0,0E0,0E0,0E0,0E0,0E0,0E0,0E0,0E0,0E0,0E0,0E0],"parents":[2147483647,0,0,1,1,2,2,3,3,4,4,5,5,6,6,7,7,8,8,9,9,10,10,11,11,12,12,14,14],"right_children":[2,4,6,8,10,12,14,16,18,20,22,24,26,-1,28,-1,-1,-1,-1,-1,-1,-1,-1,-1,-1,-1,-1,-1,-1],"split_conditions":[1.12333335E-1,3.78E-1,1.38E-1,5.5477923E-1,9.9983674E-1,1E0,5.349429E-1,5.9E-2,7.665678E-1,1.5E-1,8.171105E-1,9.888618E-1,1E-1,-8.70765E-3,1E-1,-6.4057186E-2,1.8331751E-2,5.492257E-3,6.806824E-2,-7.2721034E-2,1.9340381E-2,2.3259088E-2,1.1532022E-1,-4.350947E-2,2.1025185E-2,-8.587595E-2,-6.8279128E-3,-1.06626965E-1,-3.778158E-2],"split_indices":[12,14,14,0,0,12,0,12,5,2,5,1,2,0,2,0,0,0,0,0,0,0,0,0,0,0,0,0,0],"split_type":[0,0,0,0,0,0,0,0,0,0,0,0,0,0,0,0,0,0,0,0,0,0,0,0,0,0,0,0,0],"sum_hessian":[2.6775412E2,1.684464E2,9.9307724E1,1.3757957E2,3.0866827E1,7.770876E1,2.1598957E1,2.3285543E1,1.1429402E2,2.8498726E1,2.3681028E0,6.0786655E1,1.6922108E1,1.1251574E0,2.04738E1,1.5265349E1,8.020195E0,3.5581768E1,7.871226E1,2.2819311E1,5.6794133E0,1.0008516E0,1.3672512E0,2.4429295E1,3.635736E1,1.4972865E1,1.9492434E0,1.7096773E1,3.3770268E0],"tree_param":{"num_deleted":"0","num_feature":"35","num_nodes":"29","size_leaf_vector":"1"}},{"base_weights":[-5.4812897E-2,1.917282E-2,-8.652379E-1,1.9519833E-1,-2.5069422E-1,-1.9576496E-2,-8.9850557E-1,3.8718402E-1,-1.3050333E-1,2.0556644E-2,-5.3635573E-1,-2.4075339E-2,-9.2472994E-1,2.931176E-3,6.6214524E-2,-6.2533185E-2,1.6841609E-2,2.2507336E-2,-6.459357E-2,-7.2566204E-2,4.335918E-3,-9.7191595E-2,-3.532558E-2],"categories":[],"categories_nodes":[],"categories_segments":[],"categories_sizes":[],"default_left":[1,0,0,1,0,0,0,1,0,0,1,0,0,0,0,0,0,0,0,0,0,0,0],"id":44,"left_children":[1,3,5,7,9,-1,11,13,15,17,19,-1,21,-1,-1,-1,-1,-1,-1,-1,-1,-1,-1],"loss_changes":[1.5669857E1,1.1459341E1,3.1098747E-1,9.176107E0,7.3925185E0,0E0,1.3179398E-1,9.040299E0,8.221317E0,6.9372115E0,5.1274786E0,0E0,1.8000221E-1,0E0,0E0,0E0,0E0,0E0,0E0,0E0,0E0,0E0,0E0],"parents":[2147483647,0,0,1,1,2,2,3,3,4,4,6,6,7,7,8,8,9,9,10,10,12,12],"right_children":[2,4,6,8,10,-1,12,14,16,18,20,-1,22,-1,-1,-1,-1,-1,-1,-1,-1,-1,-1],"split_conditions":[9.85E-1,1.42E-1,6.228E-3,1.34E-1,5.466667E-2,-1.9576496E-2,8.425181E-3,8.928319E-1,9.888618E-1,3.6049762E-1,8.5121524E-1,-2.4075339E-2,8.0519825E-1,2.931176E-3,6.6214524E-2,-6.2533185E-2,1.6841609E-2,2.2507336E-2,-6.459357E-2,-7.2566204E-2,4.335918E-3,-9.7191595E-2,-3.532558E-2],"split_indices":[12,14,11,12,12,0,13,0,1,13,1,0,13,0,0,0,0,0,0,0,0,0,0],"split_type":[0,0,0,0,0,0,0,0,0,0,0,0,0,0,0,0,0,0,0,0,0,0,0],"sum_hessian":[2.600624E2,2.3920145E2,2.0860952E1,1.4493907E2,9.426237E1,1.3134683E0,1.9547483E1,9.106928E1,5.3869797E1,4.8826775E1,4.5435593E1,1.1398028E0,1.840768E1,4.00497E1,5.1019577E1,1.9875727E1,3.399407E1,3.7868824E1,1.0957949E1,3.4061146E1,1.1374447E1,1.6356432E1,2.0512483E0],"tree_param":{"num_deleted":"0","num_feature":"35","num_nodes":"23","size_leaf_vector":"1"}},{"base_weights":[-4.5698754E-2,2.4348449E-2,-8.513962E-1,-1.0586617E-1,3.9698517E-1,-4.8739747E-3,-8.9179236E-1,-1.25575E-2,-6.3074374E-1,-2.1326933E-2,5.7280946E-1,-1.3242929E-2,-9.328452E-1,2.097985E-2,-3.0245533E-2,-8.571606E-2,6.771155E-2,-2.2468617E-2,9.857357E-2,8.062321E-2,1.2017356E-2,-9.649787E-2,-2.356517E-2],"categories":[],"categories_nodes":[],"categories_segments":[],"categories_sizes":[],"default_left":[1,0,1,0,1,0,0,1,1,1,0,0,0,0,0,0,0,0,0,0,0,0,0],"id":45,"left_children":[1,3,5,7,9,-1,11,13,15,17,19,-1,21,-1,-1,-1,-1,-1,-1,-1,-1,-1,-1],"loss_changes":[1.4510202E1,1.1550389E1,6.232786E-1,8.638584E0,4.544881E0,0E0,4.8498344E-1,9.791803E0,8.465401E0,4.1538987E0,4.491288E0,0E0,1.8377686E-1,0E0,0E0,0E0,0E0,0E0,0E0,0E0,0E0,0E0,0E0],"parents":[2147483647,0,0,1,1,2,2,3,3,4,4,6,6,7,7,8,8,9,9,10,10,12,12],"right_children":[2,4,6,8,10,-1,12,14,16,18,20,-1,22,-1,-1,-1,-1,-1,-1,-1,-1,-1,-1],"split_conditions":[1E0,1E-1,4.8E-3,3.6E-1,6.3645256E-1,-4.8739747E-3,6.228E-3,9.266666E-2,1E0,9.748E-3,1.78E-1,-1.3242929E-2,9.915748E-1,2.097985E-2,-3.0245533E-2,-8.571606E-2,6.771155E-2,-2.2468617E-2,9.857357E-2,8.062321E-2,1.2017356E-2,-9.649787E-2,-2.356517E-2],"split_indices":[12,2,14,14,0,0,11,12,0,11,14,0,5,0,0,0,0,0,0,0,0,0,0],"split_type":[0,0,0,0,0,0,0,0,0,0,0,0,0,0,0,0,0,0,0,0,0,0,0],"sum_hessian":[2.5573776E2,2.3617456E2,1.9563198E1,1.7554709E2,6.0627483E1,1.0431299E0,1.852007E1,1.4991948E2,2.5627602E1,1.8201681E1,4.2425804E1,1.1666231E0,1.7353445E1,8.499972E1,6.491976E1,2.2139425E1,3.4881752E0,1.579004E1,2.4116414E0,2.7475561E1,1.495024E1,1.62217E1,1.1317451E0],"tree_param":{"num_deleted":"0","num_feature":"35","num_nodes":"23","size_leaf_vector":"1"}},{"base_weights":[-4.5215905E-2,5.2145675E-2,-7.0545393E-1,-8.6378746E-2,4.6008432E-1,1.6399883E-1,-7.7756375E-1,-7.7651963E-3,-5.9215915E-1,-3.5140138E-2,6.793928E-1,-1.4283146E-2,4.2245675E-2,-7.332117E-2,-8.837304E-1,-8.082944E-2,5.7063987E-3,-7.7309184E-2,5.4841507E-2,4.4697434E-2,-4.487946E-2,-4.627643E-2,7.4219875E-2,5.9983533E-2,-4.432715E-2,-2.118106E-2,-9.539176E-2],"categories":[],"categories_nodes":[],"categories_segments":[],"categories_sizes":[],"default_left":[0,0,1,0,0,1,0,0,0,0,0,0,0,0,0,0,0,0,0,0,0,0,0,0,0,0,0],"id":46,"left_children":[1,3,5,7,9,11,13,15,17,19,21,-1,-1,23,25,-1,-1,-1,-1,-1,-1,-1,-1,-1,-1,-1,-1],"loss_changes":[1.614793E1,1.2435347E1,2.1512527E0,6.5397625E0,6.080105E0,3.2187083E-1,2.1767673E0,7.49156E0,4.990432E0,3.8034534E0,3.1193562E0,0E0,0E0,1.5155565E0,1.0223484E0,0E0,0E0,0E0,0E0,0E0,0E0,0E0,0E0,0E0,0E0,0E0,0E0],"parents":[2147483647,0,0,1,1,2,2,3,3,4,4,5,5,6,6,7,7,8,8,9,9,10,10,13,13,14,14],"right_children":[2,4,6,8,10,12,14,16,18,20,22,-1,-1,24,26,-1,-1,-1,-1,-1,-1,-1,-1,-1,-1,-1,-1],"split_conditions":[5.87E-1,1E-1,4E-3,3.6E-1,6.3645256E-1,6.245E-2,8.634E-3,4.6505705E-1,9.888618E-1,4.3333333E-2,3.8549992E-1,-1.4283146E-2,4.2245675E-2,4.9E-2,3.161024E-1,-8.082944E-2,5.7063987E-3,-7.7309184E-2,5.4841507E-2,4.4697434E-2,-4.487946E-2,-4.627643E-2,7.4219875E-2,5.9983533E-2,-4.432715E-2,-2.118106E-2,-9.539176E-2],"split_indices":[12,2,14,14,0,11,11,0,1,12,5,0,0,14,5,0,0,0,0,0,0,0,0,0,0,0,0],"split_type":[0,0,0,0,0,0,0,0,0,0,0,0,0,0,0,0,0,0,0,0,0,0,0,0,0,0,0],"sum_hessian":[2.4963297E2,2.1835448E2,3.1278484E1,1.6359164E2,5.4762836E1,2.2978792E0,2.8980606E1,1.4246382E2,2.1127827E1,1.7065866E1,3.7696968E1,1.2551677E0,1.0427114E0,4.0180464E0,2.4962559E1,9.813677E0,1.3265015E2,1.8513212E1,2.614615E0,7.843598E0,9.222268E0,1.6329396E0,3.606403E1,1.2046634E0,2.8133829E0,2.74091E0,2.222165E1],"tree_param":{"num_deleted":"0","num_feature":"35","num_nodes":"27","size_leaf_vector":"1"}},{"base_weights":[-7.023445E-3,2.0032005E-1,-2.761536E-1,1.0395503E-1,8.933832E-1,-1.671695E-1,-7.992718E-1,2.7044457E-1,-2.68275E-1,1.3251291E-1,4.9454537E-1,-4.283088E-1,1.2026839E-1,-8.4365004E-1,-3.6432657E-1,-3.1842366E-2,4.9039777E-2,-9.5511965E-2,-1.2107798E-2,1.0072666E-1,-8.6175166E-2,-1.5655538E-2,-1.274622E-1,8.9539096E-2,2.478074E-3,-8.935871E-2,-3.0595187E-2,3.447283E-3,-6.157722E-2],"categories":[],"categories_nodes":[],"categories_segments":[],"categories_sizes":[],"default_left":[0,0,1,0,0,1,0,0,0,0,0,0,0,0,0,0,0,0,0,0,0,0,0,0,0,0,0,0,0],"id":47,"left_children":[1,3,5,7,9,11,13,15,17,-1,19,21,23,25,27,-1,-1,-1,-1,-1,-1,-1,-1,-1,-1,-1,-1,-1,-1],"loss_changes":[1.3708778E1,9.1759205E0,5.960574E0,7.693425E0,2.2391605E0,6.7866325E0,4.3272972E-2,1.1225993E1,3.7773812E0,0E0,8.053637E0,1.0663755E1,3.197012E0,1.4880466E-1,3.6637428E-1,0E0,0E0,0E0,0E0,0E0,0E0,0E0,0E0,0E0,0E0,0E0,0E0,0E0,0E0],"parents":[2147483647,0,0,1,1,2,2,3,3,4,4,5,5,6,6,7,7,8,8,10,10,11,11,12,12,13,13,14,14],"right_children":[2,4,6,8,10,12,14,16,18,-1,20,22,24,26,28,-1,-1,-1,-1,-1,-1,-1,-1,-1,-1,-1,-1,-1,-1],"split_conditions":[9.533333E-2,8.327905E-1,1E0,2.3343219E-1,6E-2,9.888618E-1,1E-1,3.5673957E-2,5.9868765E-1,1.3251291E-1,2.9595986E-1,1.5542558E-1,2.043324E-2,8.0519825E-1,7.9776645E-2,-3.1842366E-2,4.9039777E-2,-9.5511965E-2,-1.2107798E-2,1.0072666E-1,-8.6175166E-2,-1.5655538E-2,-1.274622E-1,8.9539096E-2,2.478074E-3,-8.935871E-2,-3.0595187E-2,3.447283E-3,-6.157722E-2],"split_indices":[12,1,12,13,12,1,2,13,0,0,13,13,13,13,13,0,0,0,0,0,0,0,0,0,0,0,0,0,0],"split_type":[0,0,0,0,0,0,0,0,0,0,0,0,0,0,0,0,0,0,0,0,0,0,0,0,0,0,0,0,0],"sum_hessian":[2.4367519E2,1.3778128E2,1.05893906E2,1.2197202E2,1.5809263E1,8.872823E1,1.7165678E1,8.4465904E1,3.750612E1,6.4762173E0,9.333046E0,4.623412E1,4.2494114E1,1.4723721E1,2.4419568E0,2.2848152E1,6.161775E1,5.650636E0,3.1855484E1,6.9594893E0,2.3735564E0,3.5893578E1,1.0340542E1,3.7419271E0,3.8752186E1,1.2866873E1,1.8568472E0,1.2779678E0,1.1639891E0],"tree_param":{"num_deleted":"0","num_feature":"35","num_nodes":"29","size_leaf_vector":"1"}},{"base_weights":[-2.7509157E-2,3.0183272E-2,-7.936638E-1,2.6229686E-1,-1.4694516E-1,-1.2824278E-1,-8.908459E-1,5.637955E-1,-7.028695E-2,5.3314272E-2,-5.1335895E-1,3.1618014E-2,-5.3133726E-2,-9.319623E-1,-1.9089261E-2,-8.06761E-2,6.305932E-2,-5.0609987E-2,1.2403468E-2,2.4652869E-2,-5.1400103E-2,-1.5807899E-2,-1.1461162E-1,-2.6949583E-2,-9.6491925E-2],"categories":[],"categories_nodes":[],"categories_segments":[],"categories_sizes":[],"default_left":[1,0,0,1,0,0,0,0,0,0,0,0,0,0,0,0,0,0,0,0,0,0,0,0,0],"id":48,"left_children":[1,3,5,7,9,11,13,15,17,19,21,-1,-1,23,-1,-1,-1,-1,-1,-1,-1,-1,-1,-1,-1],"loss_changes":[1.0680278E1,9.296024E0,9.798832E-1,9.847972E0,9.445469E0,7.635258E-1,2.4213886E-1,5.2159157E0,4.07693E0,9.323089E0,1.0036836E1,0E0,0E0,3.530693E-2,0E0,0E0,0E0,0E0,0E0,0E0,0E0,0E0,0E0,0E0,0E0],"parents":[2147483647,0,0,1,1,2,2,3,3,4,4,5,5,6,6,7,7,8,8,9,9,10,10,13,13],"right_children":[2,4,6,8,10,12,14,16,18,20,22,-1,-1,24,-1,-1,-1,-1,-1,-1,-1,-1,-1,-1,-1],"split_conditions":[1E0,7.6E-2,1.42E-2,1.24E-1,1.8288952E-1,4.1478E-1,9.915748E-1,9.84E-4,9.999959E-1,9.782406E-1,5.2333333E-2,3.1618014E-2,-5.3133726E-2,8.175745E-1,-1.9089261E-2,-8.06761E-2,6.305932E-2,-5.0609987E-2,1.2403468E-2,2.4652869E-2,-5.1400103E-2,-1.5807899E-2,-1.1461162E-1,-2.6949583E-2,-9.6491925E-2],"split_indices":[12,14,14,12,13,11,5,11,0,5,12,0,0,0,0,0,0,0,0,0,0,0,0,0,0],"split_type":[0,0,0,0,0,0,0,0,0,0,0,0,